/* Generated by Edge Impulse
 *
 * Permission is hereby granted, free of charge, to any person obtaining a copy
 * of this software and associated documentation files (the "Software"), to deal
 * in the Software without restriction, including without limitation the rights
 * to use, copy, modify, merge, publish, distribute, sublicense, and/or sell
 * copies of the Software, and to permit persons to whom the Software is
 * furnished to do so, subject to the following conditions:
 *
 * The above copyright notice and this permission notice shall be included in
 * all copies or substantial portions of the Software.
 *
 * THE SOFTWARE IS PROVIDED "AS IS", WITHOUT WARRANTY OF ANY KIND, EXPRESS OR
 * IMPLIED, INCLUDING BUT NOT LIMITED TO THE WARRANTIES OF MERCHANTABILITY,
 * FITNESS FOR A PARTICULAR PURPOSE AND NONINFRINGEMENT. IN NO EVENT SHALL THE
 * AUTHORS OR COPYRIGHT HOLDERS BE LIABLE FOR ANY CLAIM, DAMAGES OR OTHER
 * LIABILITY, WHETHER IN AN ACTION OF CONTRACT, TORT OR OTHERWISE, ARISING FROM,
 * OUT OF OR IN CONNECTION WITH THE SOFTWARE OR THE USE OR OTHER DEALINGS IN THE
 * SOFTWARE.
 */
// Generated on: 12.08.2022 22:00:47

#include <stdio.h>
#include <stdlib.h>
#include <vector>
#include "edge-impulse-sdk/tensorflow/lite/c/builtin_op_data.h"
#include "edge-impulse-sdk/tensorflow/lite/c/common.h"
#include "edge-impulse-sdk/tensorflow/lite/micro/micro_mutable_op_resolver.h"
#include "edge-impulse-sdk/porting/ei_classifier_porting.h"

#if EI_CLASSIFIER_PRINT_STATE
#if defined(__cplusplus) && EI_C_LINKAGE == 1
extern "C" {
    extern void ei_printf(const char *format, ...);
}
#else
extern void ei_printf(const char *format, ...);
#endif
#endif

#if defined __GNUC__
#define ALIGN(X) __attribute__((aligned(X)))
#elif defined _MSC_VER
#define ALIGN(X) __declspec(align(X))
#elif defined __TASKING__
#define ALIGN(X) __align(X)
#endif

using namespace tflite;
using namespace tflite::ops;
using namespace tflite::ops::micro;

namespace {

constexpr int kTensorArenaSize = 880;

#if defined(EI_CLASSIFIER_ALLOCATION_STATIC)
uint8_t tensor_arena[kTensorArenaSize] ALIGN(16);
#elif defined(EI_CLASSIFIER_ALLOCATION_STATIC_HIMAX)
#pragma Bss(".tensor_arena")
uint8_t tensor_arena[kTensorArenaSize] ALIGN(16);
#pragma Bss()
#elif defined(EI_CLASSIFIER_ALLOCATION_STATIC_HIMAX_GNU)
uint8_t tensor_arena[kTensorArenaSize] ALIGN(16) __attribute__((section(".tensor_arena")));
#else
#define EI_CLASSIFIER_ALLOCATION_HEAP 1
uint8_t* tensor_arena = NULL;
#endif

static uint8_t* tensor_boundary;
static uint8_t* current_location;

template <int SZ, class T> struct TfArray {
  int sz; T elem[SZ];
};
enum used_operators_e {
  OP_FULLY_CONNECTED, OP_SOFTMAX,  OP_LAST
};
struct TensorInfo_t { // subset of TfLiteTensor used for initialization from constant memory
  TfLiteAllocationType allocation_type;
  TfLiteType type;
  void* data;
  TfLiteIntArray* dims;
  size_t bytes;
  TfLiteQuantization quantization;
};
struct NodeInfo_t { // subset of TfLiteNode used for initialization from constant memory
  struct TfLiteIntArray* inputs;
  struct TfLiteIntArray* outputs;
  void* builtin_data;
  used_operators_e used_op_index;
};

TfLiteContext ctx{};
TfLiteTensor tflTensors[11];
TfLiteEvalTensor tflEvalTensors[11];
TfLiteRegistration registrations[OP_LAST];
TfLiteNode tflNodes[4];

const TfArray<2, int> tensor_dimension0 = { 2, { 1,600 } };
const TfArray<1, float> quant0_scale = { 1, { 0.081111200153827667, } };
const TfArray<1, int> quant0_zero = { 1, { 11 } };
const TfLiteAffineQuantization quant0 = { (TfLiteFloatArray*)&quant0_scale, (TfLiteIntArray*)&quant0_zero, 0 };
const ALIGN(16) int8_t tensor_data1[80*600] = { 
  -90, -11, -66, -68, 82, 94, -71, -33, 37, -50, 58, -79, -60, -78, 29, 15, -58, 0, -23, 67, 83, -2, -26, 16, 7, -93, -3, 21, -57, 58, 65, 96, 87, -25, -43, 71, 19, 19, 4, 9, -27, -67, -84, -52, 26, 54, -17, -59, -85, -30, -8, 84, -47, 7, -53, 14, 61, 94, 51, 55, -52, 27, 27, -37, 3, 35, -10, -60, -82, 53, -64, -90, 45, -85, 33, -96, -65, -31, 92, -73, 94, 79, -31, -65, 76, 69, -81, 9, -42, 24, 23, -69, -74, -96, -84, -93, 38, -7, 63, -66, -46, 45, -28, 66, -25, -43, -36, 8, -67, 85, -1, 11, -88, -74, -43, 83, -13, 25, -35, -36, 30, -82, 23, 80, 33, 79, -81, 66, 69, 83, 94, -6, -58, -103, -12, 57, 36, -85, 80, 29, 75, 83, 8, -87, 39, 55, -6, 37, 90, 21, -82, 26, 95, -19, -65, 77, -54, -36, -90, -80, -55, -70, -10, 90, -90, -61, 83, -45, -87, 60, -49, 9, 22, -106, -39, 66, 57, 31, -9, 0, 43, 76, -51, 67, -21, -91, -26, -72, 79, 0, -2, -56, 34, -64, 93, 2, -54, 47, -43, -48, 17, 58, 52, 39, 43, 42, 32, 61, -54, -77, -90, 54, -4, 89, 74, -8, -73, -105, -49, -56, -45, -57, 64, -57, 38, -6, 90, -100, -10, -23, 46, 38, 25, 8, -67, 17, -48, -71, 84, -75, 32, 3, -64, 17, 21, -76, -60, -62, 82, -99, 17, 59, 14, -46, 77, -42, 13, -36, -3, -91, 67, 52, -44, 14, 58, 48, -32, -34, 0, 20, -73, 34, -91, -13, -75, 6, -39, 79, -108, 47, 38, -14, 31, -79, -72, -9, -58, -14, 37, -105, 60, 33, -60, 35, -36, 21, 35, 4, 22, -36, -4, -30, 90, 90, 16, -73, -87, 28, -80, 48, 24, 10, 35, 30, 59, 67, 88, -6, -14, -73, -100, -3, -96, -106, 55, 58, 40, -21, -21, -5, 79, -57, 31, -39, 17, 88, 4, -56, -81, 82, -49, -86, -49, -92, -20, 88, -33, 12, 66, 57, 3, -63, -61, -60, 20, -79, -105, 46, -110, 76, -4, -41, -59, 103, 9, -96, -10, 46, 20, 33, 2, 101, 35, 10, 61, -92, -90, -85, 9, -99, 21, -80, -73, 58, 0, 83, 82, -18, 62, -76, -76, -97, -18, -22, -71, -54, 53, -101, 8, -90, -27, 75, 4, 65, -33, -41, 70, 52, 38, -23, -48, -39, 49, 3, 72, -61, -38, 100, 88, -23, 66, 46, 40, 70, 30, 21, 47, -38, -2, 82, -82, -4, -30, -10, 29, 32, 47, 30, 57, 34, 32, 51, 16, -3, 42, -31, -61, -51, -75, -69, 18, 70, 63, -47, -88, 19, -35, 3, 95, 44, 35, -79, 65, 97, 53, -67, 93, 51, -52, -27, -35, -40, 79, -51, -20, 90, -26, -32, 7, -78, 29, 12, 27, 23, 18, 8, -32, -86, -22, -72, 21, -35, 9, -92, 64, 104, -56, 8, -74, 72, 40, 40, 81, -59, 103, 35, 6, -44, -94, -43, 91, 27, -74, -43, -60, -86, -92, -48, -87, 80, -21, 14, 15, -28, -108, -45, 20, -2, -12, 15, -11, -19, 43, -24, -20, -52, -36, -6, -1, -50, -74, -92, -5, 57, -52, -77, 97, -41, 48, 5, -72, 8, -52, 17, -111, -47, -55, 20, 46, -59, -100, 98, -43, -40, 79, 37, -47, -45, 24, -34, 60, -101, -77, -24, 25, 96, -15, -11, 23, -106, -21, 51, 78, -72, 92, -23, -107, -2, 102, 27, 24, -42, 64, -50, 5, -83, 98, 42, -104, 46, 
  9, 4, -86, -38, -26, 0, 31, -71, -101, -48, -39, -77, -18, -108, -95, 75, -23, 69, -28, -93, 72, -55, -28, -82, 3, -28, -66, -39, 53, -84, 45, 20, 51, -82, 50, 40, -79, 8, -68, -87, -3, -46, 35, 49, -60, -20, -31, 70, -82, -85, -34, 18, -59, 39, 62, 48, -42, -13, -79, 26, 37, 50, -56, -24, -81, 85, 30, 71, -74, 87, 48, 24, 4, 2, -101, 103, 16, 38, 9, -85, 44, -82, -45, -37, -108, 47, 59, 27, 85, -80, 20, -121, 27, 108, -21, -67, -99, -35, -50, 45, -26, 90, 1, -42, 32, -7, 22, 44, -74, -86, 73, -64, -82, -78, 60, 25, -92, 103, -59, -36, 1, -116, 74, 54, -26, 107, 75, 8, 100, -53, 60, -70, 61, -12, 20, 89, -63, -51, 52, -18, -9, 44, 10, 97, -24, 39, 57, -48, 27, -43, 4, -20, 53, -22, 84, 67, -87, -73, 81, -85, 2, -13, 44, 16, -16, -54, -88, 21, -55, -71, -72, -63, 35, 40, 47, 78, -28, -81, 65, -82, -97, -67, 70, -63, -71, -30, -79, 27, -67, 51, 75, -10, -65, -5, -26, 96, -104, 112, -99, -34, 25, 36, -37, -10, -12, 95, -21, 91, -34, 1, -55, 38, -78, 27, -98, -64, -47, -60, 22, 46, -90, 64, 94, -48, -45, -32, -52, -66, -41, -35, -14, 107, -86, -77, -46, -98, -7, 53, 97, 23, -23, -52, -68, -72, 90, 29, -80, 23, 0, 94, 65, 67, -107, -75, 17, 40, 77, -21, -96, 102, 90, 88, 29, 64, 71, 68, 56, 47, 46, -97, -72, 74, -53, -90, 85, 18, -88, 105, 18, 16, 100, -16, 68, 52, 44, 61, 76, -98, 60, 23, 60, 81, 74, -51, -35, 99, 58, -8, 74, 54, -63, -100, 9, 76, -47, -19, -50, 30, -8, 55, -3, 45, 89, 87, -91, -63, 52, 3, -60, -95, -77, 93, 108, -89, 97, 9, 70, 14, -61, 19, -45, 36, 27, 67, -72, 58, -14, 88, -4, 25, -12, 75, 71, 53, -9, 8, -79, 82, -81, -49, -41, 82, -53, -109, 86, -68, 85, 12, 66, 37, -77, -32, 93, 32, 43, -32, 67, 10, 55, -62, 23, -58, 31, 78, 82, -8, 66, -87, -48, -19, -25, -53, -97, 75, -68, -11, 28, 76, -26, -9, -8, 4, 84, -24, -62, 15, 58, 4, -53, 77, -37, -66, 100, 40, -39, 13, 46, 47, -6, -74, -37, 82, -1, 87, 10, 39, 71, -95, 33, 86, 21, -19, 89, -3, -45, -73, 0, 19, -7, 26, -19, -91, -45, -21, -14, 34, 73, 31, 75, 96, 1, -99, 48, -35, -88, 52, 96, -15, -101, 90, 73, 12, -74, 78, 84, 53, 18, 20, -14, -43, 27, 41, -50, -65, 65, -84, -2, -107, -7, 56, -33, 88, 96, -24, -13, -32, -65, 20, -40, -100, -77, -35, 45, -39, -3, -27, 77, -22, -86, 93, -67, -18, 62, 87, -17, -38, 48, -23, 51, 85, 12, 94, -54, -15, -60, 46, -33, -35, -70, 17, 72, -2, 44, 70, -34, 15, -10, -95, 73, -102, 97, -26, 16, -48, 89, -60, -69, -97, -44, -106, 71, 75, -49, 2, -62, -82, -31, -35, -66, -33, -97, 11, -18, -47, -17, -36, 5, 86, 14, 74, -89, 72, -17, -34, -75, 94, -94, -3, 22, -110, -106, 2, 39, -8, -11, 40, 83, -104, -46, -24, 19, 39, 96, -94, -105, -36, -48, -87, -83, 15, -66, -70, -83, 49, 59, 82, 55, -22, -110, 13, 41, 35, -70, -80, -106, -54, 32, -93, -120, 26, 
  2, 10, -54, -69, -80, 70, -43, -6, -79, 29, 73, -24, 104, 28, 74, 40, 38, 55, -37, -63, 37, 84, -79, -98, 69, -66, 70, -17, 17, 70, 102, -75, -66, -1, -39, -14, 88, -42, -55, 16, 8, 44, 24, 88, -90, 1, -93, 64, 31, -35, 97, 42, 60, 29, 13, -14, -8, -13, 9, -9, -3, -57, 79, -108, 71, -12, -27, -81, -71, 75, 27, -68, 21, 77, 71, -47, 10, 33, 55, -42, -91, 1, 98, -43, -41, -31, -24, -81, 7, 83, 55, -92, 6, -108, 74, -55, 103, 80, 88, -73, 61, -24, 14, 35, 9, -46, 25, 7, 44, -18, 60, -63, 106, 11, -27, 86, 0, -69, -61, 62, 2, -67, -51, 35, -14, 51, -9, 94, -57, -3, -75, -32, 54, 83, 78, -53, -12, -77, 97, -19, -74, -39, -9, -104, -36, 44, 81, -65, 62, -79, -20, 90, -74, 1, 56, 20, -68, -62, 45, 72, -73, 49, -18, -6, -114, 34, 20, 89, 4, 11, -98, -48, -41, -17, -80, 89, 90, -62, -13, 5, -8, -101, 36, -63, 19, -24, 91, -7, 94, 89, 26, -23, 45, -78, 33, -10, -18, 51, -73, 6, -69, 60, 37, 41, 81, 67, 47, 35, 77, 61, 86, -34, -98, -66, 11, -41, -31, 41, -47, 27, -72, -104, 74, 28, -110, 1, 19, -10, 20, -40, 43, -73, 14, -51, -74, -19, -9, -51, -101, 38, 88, -60, -78, -108, 73, -20, -61, 84, 24, 4, -101, -12, 69, 13, -89, -55, 19, 63, 112, 99, -47, -95, -44, -6, 62, -58, 26, -63, -101, 48, 24, -45, -63, -40, -49, 42, 100, 75, -76, 78, -29, -94, 62, -91, -83, 7, 72, -12, 43, 74, 90, -30, 85, -16, -75, -75, -75, -88, 69, -16, 75, -55, -60, -24, -54, -42, 44, -51, 3, -2, 74, 87, 24, 91, 79, 96, -6, -15, -68, 71, 27, 80, 83, 72, -93, 32, -8, 74, -53, -43, -72, 4, 89, -86, -12, 14, 15, 88, 14, 70, 92, 83, 43, -2, -7, 102, 67, 4, -32, -44, -13, -28, 100, -36, -90, 6, 4, 32, -14, 89, -7, 50, 41, 97, -33, 2, 70, -25, 52, -54, 85, 15, 90, 14, 9, 4, -18, 94, 87, -51, 4, 29, 16, 21, -109, -25, 20, -42, 45, -28, -30, -102, 101, 14, 44, -9, 15, -44, -67, 99, 78, 3, -53, 83, -71, -74, 23, -10, 26, 73, 67, -81, 20, -51, 95, 5, 29, 43, -21, 57, 65, -21, 94, -106, 52, 94, -36, 40, -98, 44, -1, -5, 0, 87, 26, 29, 44, -78, 19, 4, 103, 97, 22, 77, 43, 90, 38, -62, 81, -20, -61, 86, 97, 18, -10, -51, 83, 31, -23, -3, -64, -51, 85, 61, -100, -39, 20, -22, -60, -66, 104, 3, 101, -26, -1, 16, 19, -18, -81, 15, -98, 42, 98, 27, 64, -1, -51, -91, -27, 23, -78, -53, 26, -100, -50, 77, -26, 71, 65, -57, 13, 16, -49, 24, 84, 97, 37, -77, -87, 30, 93, -102, -44, -52, -69, -1, -80, 39, -10, 102, 94, 24, -46, -59, 60, 2, -38, -69, 86, -100, 24, 67, -40, 100, -27, 55, -48, -89, -28, 69, 100, -28, 91, -96, -41, 23, -5, 40, 65, -55, -2, -43, -30, 26, -59, 99, -75, -72, -19, 29, -30, -32, 28, 9, -28, -78, -88, -74, -7, -53, 49, -68, 6, -57, -74, -21, -7, 65, 42, -72, 89, -67, 106, 104, -53, 25, -55, -31, 83, -40, 85, 88, 83, -45, 28, 36, 81, 10, -43, 34, 
  -105, 35, 13, 4, -9, -86, -18, 87, 4, 13, 24, -61, 56, -30, 50, -108, -40, -82, -1, -77, 54, 41, 103, -23, -78, -10, 12, 29, -21, 7, 42, -13, -103, 68, 94, 43, -50, 102, 20, -20, 7, 101, 89, -78, -68, 80, -54, 11, 51, 65, -72, 7, -31, 83, -81, 1, -106, 45, -44, 94, -71, 73, -102, -81, -19, 107, -72, -82, -41, 27, -2, 111, -78, 42, 26, 57, -10, 27, 19, -10, -111, -51, -76, -63, -7, -66, 36, 75, -67, 25, -1, -47, -43, 36, 18, -5, 60, 24, -63, 65, -70, 7, 0, 39, -12, -89, -55, 33, 80, -84, 83, -100, 66, 105, -112, -5, -15, -73, 79, -84, -59, 86, 37, 3, -5, 16, -90, 16, -81, 55, -50, -60, -8, -55, 57, -85, 91, -8, 8, 47, 6, -54, 40, 36, 8, -21, -56, -6, -28, -11, 19, 85, 0, -2, -54, -30, -22, 56, 33, -95, 74, -4, 27, -43, 89, -23, -46, 9, 12, -41, 10, -97, 34, 69, 33, -8, -17, 88, -32, -70, -12, 48, -11, 64, 38, 61, -16, -2, 2, 23, 14, 108, -84, -4, 61, 74, -30, 13, 95, 99, -46, 52, 91, 98, -6, 28, 78, -83, -55, 88, -45, 36, 14, 24, -69, -58, 44, 74, 24, -24, -63, -49, -61, 38, -96, 5, 1, 102, 50, -61, 47, 8, -72, 108, -78, 43, -14, 17, -43, -68, 65, 18, 3, 91, -23, -85, -102, -44, -75, 66, 31, 82, 83, -37, 73, -71, 25, 59, 79, 44, -55, -98, 100, 33, -47, -88, 6, -85, 7, -90, -89, 57, -22, 87, 49, 63, 38, 63, 80, 50, -99, 105, 104, 64, -79, -41, 35, 26, -35, -82, -61, 46, 61, 98, 67, 6, 28, 39, 19, 11, -4, -3, 56, -97, 53, 4, 9, -68, 63, -48, 27, -90, 51, -69, 47, -56, -103, -18, 98, 6, -72, 91, 30, -17, -86, -70, 36, 59, -17, -47, 107, 17, -5, -67, 10, -65, 14, -15, 76, -110, 11, 106, 72, -11, 1, -85, -31, 86, 12, -50, 27, -92, 22, 96, -88, 8, 65, -68, -106, 23, 39, 39, 59, 26, -67, 78, -37, -9, 9, -48, 42, -79, -41, -39, -37, -27, -23, -42, -1, -83, 2, 51, 90, 97, -14, -85, -20, -24, -80, -4, 14, 0, 21, 35, 88, 86, -3, 118, 4, 63, 73, -78, -70, -23, -49, 66, 46, -97, 89, -55, -76, 55, -105, 51, 34, 23, 74, -42, 19, 48, 47, -64, 23, 50, -3, -107, 8, -26, -93, 17, -38, -106, -54, -53, -84, 7, -63, 85, -12, 99, 76, 8, 67, -7, 81, 8, -44, -98, 95, -90, 29, 78, -58, -1, -77, 43, 8, 12, -4, -65, 74, -6, 22, -41, -15, -88, -75, -1, -54, -74, 34, -69, -64, 5, -66, -103, -80, 28, 10, -105, -59, -46, -2, 3, 54, -53, -60, -100, -94, 91, -6, 63, 54, 25, 68, 23, -26, -51, 36, 77, 22, -4, 39, 0, 22, -59, -28, -58, -85, -24, -52, 5, -13, -104, -74, -16, -4, 77, 20, 68, -47, 84, -71, 14, 34, 76, -18, 87, -71, -57, 18, -73, -78, -16, -78, 24, 28, -97, 86, 76, 77, 76, -13, -32, 1, 60, 12, 88, -47, -24, -60, -104, 42, -34, 104, 18, -65, 18, 89, -67, -94, 27, 50, -2, -32, 37, -23, 8, 104, 77, -98, 65, -54, -88, 14, 95, 31, -73, -71, -73, 1, -109, -92, 2, -28, 8, -2, 91, -1, 13, -19, 72, -91, -83, 73, -72, 9, -93, -16, 25, 
  -12, 23, 34, 6, -58, -1, -26, 84, -35, 71, 35, -113, 39, 10, 76, -60, 91, -38, -27, 23, -9, 72, -79, 20, -76, -65, -22, -23, -52, 45, -72, 77, 7, 11, -70, 13, -43, 79, 28, -20, -24, -42, 24, 20, 96, 7, -81, 70, -47, -1, -17, -94, 68, -94, 42, 14, -49, 27, 105, -92, -3, -74, -19, 47, -32, -32, 12, 28, -60, -71, -87, -62, -72, 68, 17, -49, 18, -14, -44, -13, -17, 65, -76, 45, 62, 59, -44, 72, 59, 111, 86, 81, 90, 88, 120, -30, -29, -104, -76, -21, 7, 3, -93, 94, 29, 59, 48, -3, 95, 35, -16, 27, 81, 71, -73, -73, 66, -69, -65, 81, 5, 79, 1, -56, -87, -71, 103, 29, 5, -11, 120, -57, 98, 23, -80, 40, 7, -32, -3, -58, 102, 43, 76, 99, 22, -75, 105, 34, -1, 52, 2, 21, 24, 29, 121, -80, -57, -19, 41, -98, 0, 28, -78, 29, 34, 8, -53, 62, -35, -33, 0, 47, -28, -11, 54, 99, -108, 95, 40, -42, -68, 41, 67, -8, 108, 97, 34, -14, 42, -4, 94, 46, -16, 80, 11, 11, 37, -5, 59, -52, -29, 27, 83, 10, 16, -23, -60, -7, 36, 57, 63, -37, 35, -51, 96, 93, 88, 84, -11, 7, -13, 58, -90, -49, 71, -41, 49, -24, -44, 12, -64, 20, 2, 40, -28, 85, 79, -41, 15, -87, -103, 24, 88, -69, -11, 60, 77, 33, 91, -23, -57, -20, 76, 88, 10, -60, -26, 65, 94, -51, -94, 2, 42, 93, -27, -85, -37, 52, -30, -1, -103, -100, -41, 94, 44, 11, -59, 56, 36, 77, 81, 13, 28, 47, -7, 97, 58, -78, -18, -21, -37, 51, -81, 43, -14, 103, -39, 97, -10, 7, 79, -11, -40, 32, -24, 49, -83, 101, -21, 90, 53, 46, -98, -87, 64, 12, -110, 54, -86, -65, 82, -62, 30, 48, -43, 4, 51, -37, 52, 69, 21, -79, -9, -21, 39, -34, -81, 11, -7, 99, 36, 20, -78, -12, 55, -56, 70, 93, -79, -96, 64, -43, 27, 49, 21, -96, -44, 63, 20, -75, 16, 27, 21, -43, 90, -23, -18, 27, -44, -51, -11, 81, 28, 49, -67, 63, -85, -74, -12, 66, 87, -12, -16, -91, 91, 56, 15, 45, -15, 84, -96, -97, 59, 104, -88, 2, -99, 103, 30, -47, 83, 82, -53, -55, -35, -83, -84, 88, -76, -97, -2, -83, 56, -57, 82, 26, 1, 24, 74, -58, 35, -51, 48, 69, 12, -20, -40, -95, 51, -75, 79, -49, 69, -59, -29, 45, 27, -51, -3, 62, -40, 92, 104, -49, -22, 72, 34, -92, -97, -37, 12, -54, -67, 6, 67, 47, 80, -42, 19, 90, -32, 112, 9, -49, -36, 92, -5, -67, 1, -80, 52, -8, -42, -11, -105, -47, -93, 47, 18, -62, 47, 9, 2, -57, 6, 92, -75, -85, -79, -102, 48, -64, 52, 88, -56, 11, 37, 43, -96, 112, -58, -56, -2, -45, 80, -65, -103, -51, 73, -53, 82, 41, 64, -83, 83, -42, -19, 25, 51, -78, 47, 89, -79, 2, 38, -12, 44, -72, 36, 50, -95, 59, -66, 22, 79, 38, 81, 69, 93, -52, 18, -8, -95, -38, 36, -15, -114, -39, -33, 43, 93, 69, -111, -51, 12, 41, 16, -90, -116, -70, 56, 11, 20, 97, 28, 56, -87, -48, -8, 78, 57, -68, -8, 13, -42, -74, 75, -9, 28, -13, 101, -20, -112, -9, -86, -29, -37, 17, 53, 53, -92, 29, 9, 69, 31, 88, -16, 8, 1, -20, 
  31, -13, 9, 76, -68, -42, -88, 47, 20, -29, -19, -19, -34, -43, 43, -41, 6, 31, -70, 16, -75, 81, -89, -78, 26, -10, 87, -58, 50, 21, -88, 9, -32, -71, -49, -4, 52, -36, -54, -3, 8, 3, -117, 88, 100, -15, 32, 46, -83, 69, -65, 81, -60, -46, -37, 55, -52, -51, -3, 51, 76, 64, 105, 17, 61, -49, -58, 29, -57, -69, 65, 13, 37, -102, 20, -111, 56, -4, -48, 71, 94, 44, -16, 18, -21, 90, 21, -62, 78, 11, -65, 13, 60, -75, -1, 51, -58, 40, -79, -104, -12, 56, -114, -55, 66, 29, -22, -31, 13, 76, -13, -107, 21, 101, 69, -82, -51, -10, -3, -19, -49, -33, 101, 61, 95, -69, -42, 13, -50, -87, -14, -30, 60, -95, -92, 82, 51, 39, -63, 50, -79, 47, -90, 4, -46, 87, -64, 5, -25, -78, -49, 49, -29, -45, 108, -18, 5, 108, -6, 24, 30, 102, 55, 77, -51, -98, 109, -21, 23, 1, -108, 89, -60, -3, -66, -29, 13, -53, 14, -2, -52, 65, -62, -77, 111, 88, -116, 86, -93, 4, 70, -64, 39, 88, 27, -58, 107, 31, 70, 106, -50, 47, -69, -14, 49, 86, -81, 18, 92, -20, -65, -95, 25, 35, -38, 77, -52, 90, -63, -10, -89, -14, -48, 45, 52, -104, 67, -99, 41, 33, -36, -95, 106, 71, -80, 78, -5, 28, 19, -61, -10, 40, -11, -100, 1, -93, -85, 25, 31, -9, 82, -71, -13, -39, -2, -16, 8, -86, 22, -22, -107, 18, 14, 48, 0, -52, 55, -55, 63, 19, -2, 95, -107, -29, -87, -45, 46, 54, 92, -6, -91, -108, 4, 6, 50, -89, 56, -58, 74, 10, -79, 92, -84, 54, -69, -68, 17, -46, -29, -6, -47, -47, -25, 94, -77, -65, -12, -60, 33, 22, 32, -97, 6, -50, 72, 69, -23, -66, 61, -25, -91, -81, -67, -31, -76, 2, -47, 44, 81, 18, -95, -33, -90, -44, 82, -55, 0, 50, 16, 101, 72, -50, 84, -32, -66, -9, -41, 68, 26, -104, 69, -55, -5, -53, -87, 83, -35, 42, -42, 26, 89, -85, -21, -94, 16, -19, -55, 66, 94, -92, 53, -58, -60, 64, -93, -30, 21, 77, 82, -26, 14, -98, 68, 85, 13, 70, -14, 63, -22, 1, 10, -37, -5, 75, 60, 58, 15, -62, -23, 9, -100, 18, 90, 85, 65, 82, 84, -68, 77, -102, -85, -57, -23, -81, 57, 7, -26, -81, -62, 14, -34, -84, -17, -72, 6, 94, 78, -20, -81, -4, -38, 63, 60, -101, -10, -92, -60, -34, -68, -22, -75, -22, -71, 20, 58, 86, 80, -34, 8, -54, -34, 85, 0, -41, -11, -55, 47, 50, 64, 76, 55, -79, -74, 59, 77, 79, -66, -79, -38, -91, -11, 50, -78, 104, -91, 59, 83, 90, -96, -95, -91, 84, -42, -41, 74, 37, 103, 6, -58, 50, -28, 25, -3, 13, 52, -97, 42, 102, -65, 16, -10, -85, 30, -79, 96, 9, 63, 76, 28, -20, -42, 37, -108, -25, -39, 23, -28, 17, -58, 41, -7, -33, 5, 66, 50, -15, 46, -13, 25, 16, -104, 85, 86, 14, -66, -87, -41, -88, 97, -19, 9, -28, -1, 25, -80, 45, 76, -40, -105, -13, 49, 22, 51, 64, 0, 48, -39, 27, -48, -62, 57, -81, -95, 6, -12, 5, -52, -60, -73, 102, -89, 8, 87, -41, -107, 79, -55, -64, 37, -104, 25, 17, 15, 71, 49, -33, 50, -33, -15, 39, 52, 17, -76, -70, 77, -52, 34, -28, 65, -51, 
  -56, -15, -38, -92, -27, 32, 47, 49, -60, 33, 75, -4, 73, 92, -53, 49, -47, -38, 1, 47, 54, 58, 88, 10, 84, 56, -6, -72, 52, -84, 85, -47, -22, -17, -64, 55, 105, 118, 3, -22, -96, 90, -64, -49, -93, 90, -73, -58, -64, 3, -26, -66, -56, -83, -65, -69, 104, 62, -37, -55, -76, 21, 13, 49, 56, 34, 54, 91, 80, 39, 78, -65, 46, 109, 37, -49, 29, 56, -26, 87, -86, -99, 13, -66, -44, 10, -23, 56, -94, -39, 1, -30, 29, 62, 26, -108, -11, 14, 86, 85, -6, -103, -47, 6, 1, 71, -90, -61, -21, -62, -4, -105, -54, 57, 24, 114, 6, 84, 11, -92, 78, 3, -3, 31, -67, 6, -21, -27, -54, -75, 63, 42, -79, -72, -95, 88, 87, -21, -40, 76, -92, -40, -28, -8, -1, 39, -16, 58, -9, 63, -83, -18, -110, 34, -18, -14, 33, 4, -113, -60, 43, -35, -19, 21, 72, -56, -53, -87, -84, 26, 1, -91, -81, 76, -28, -38, 56, 3, -13, 70, 39, 71, 49, -41, -94, -114, -64, 82, -8, 88, 73, -78, 15, 45, -42, 63, 51, -78, 50, 71, 69, 34, -84, 19, 48, -31, 106, -90, -9, -83, -18, 79, 94, 67, -21, 45, -9, -39, -85, -39, -29, 90, -89, 45, 104, -70, -62, -21, -11, -49, -46, 78, -9, -82, -6, 31, -46, 26, 17, 54, 48, -90, 2, -54, -87, -47, 6, -101, 71, 101, 0, 31, 74, -62, 95, -90, 17, 10, 101, -32, 22, 46, -39, 5, -33, -6, 66, -96, 23, 80, -56, -43, 91, -72, 31, -79, 27, -15, 77, -4, -87, 51, -79, 87, -36, 76, -36, -38, -92, -50, 33, -15, 55, -100, 14, 58, 77, 73, 74, 32, -21, 92, -37, 26, -33, -48, -25, -77, -2, 0, -66, 56, -115, -16, -59, -45, 99, -54, -81, 20, 38, 98, 22, -59, 63, 94, 8, 28, -26, 47, 63, 36, 7, 39, 24, -38, 83, -96, 4, -26, 46, 84, -93, -85, 55, 103, -51, 76, 76, 31, 106, 32, 78, -5, -82, 91, -39, -51, 55, 84, -39, 100, 15, 22, -67, -42, 47, -74, 87, 61, 43, 89, -53, 99, 24, -12, 22, 100, -7, -83, 33, -33, 97, 2, -12, -26, -93, 44, -63, -54, 91, -83, 7, -48, 78, 37, -84, -5, -96, -87, -54, 52, 6, -13, 20, -28, 24, 76, 44, -8, -60, -42, -17, 69, -10, 104, -40, -6, -17, 24, 72, 47, 29, -78, -66, 97, 63, 82, 77, -71, -9, -80, -58, 22, -57, 93, -54, 77, 5, 100, -76, 66, 94, -29, 76, 80, 66, -76, 17, 15, 84, -2, 61, 71, -12, 85, -77, 88, -12, -44, -3, 97, 113, -44, 78, 55, 103, 45, -1, -54, 98, -51, 18, -88, 87, -11, -31, 21, 22, 34, 64, 51, -56, 59, 86, -94, -2, 47, -85, -50, -36, -49, -27, -38, -45, -77, -94, -22, 30, -33, -79, -44, -32, -79, 103, -46, 84, -56, -46, 46, -16, -4, 81, -81, 27, 59, 37, -50, 14, -10, 12, -51, -21, -74, -46, 52, -32, 122, 36, -40, 99, 53, 19, -20, 1, -87, 20, 58, 95, 50, 55, 76, -90, 40, 3, 109, 73, 1, 93, -69, 96, 20, 111, -22, -88, 86, -4, -59, 78, 87, -72, 36, 85, -69, 98, 58, 25, 72, -41, 31, -70, -76, -5, 29, 84, 74, -40, 42, -66, -1, -28, 84, 119, -62, 11, 0, -11, -53, 96, 60, -60, 65, 5, -19, -7, -9, 10, 84, -37, 47, 
  -49, -79, 95, -78, -8, -18, -31, 46, -77, -103, 6, -54, 8, -38, 14, -17, -96, 77, -48, 23, 85, -60, -83, -87, -116, -86, 7, 56, 66, 14, 7, -70, -29, -92, 67, -59, 16, 49, 22, 15, 41, -78, -35, 61, 102, -68, 21, 63, 24, 51, -7, -73, -4, -79, 91, 116, 79, 69, 97, -93, -113, 58, 89, 19, 27, 46, 70, -79, 104, 37, 99, 35, -50, 18, 54, 77, -52, 86, -13, -84, -20, 56, -41, -102, -2, -54, 23, -19, 31, -68, -98, 3, -16, 54, 19, -50, -81, -7, 103, 32, 96, 59, -93, 5, 102, 22, 36, 80, -48, 21, -94, -40, -15, -67, 1, 12, -90, -91, 89, -19, -70, 39, -102, -12, 93, 22, -68, -89, -15, 41, -78, 59, -10, 112, -85, -109, -22, 4, -38, 48, 1, 45, -3, 71, -9, 48, -14, -98, -80, -108, -84, -39, -55, 58, 9, -24, -8, 66, 10, 69, 6, 31, 91, 26, 15, 35, -88, 85, 1, 6, -31, 25, -53, 46, 14, 6, 77, -40, -63, -1, 93, 99, 85, 44, 61, -51, -67, -51, 45, 86, -26, -72, 50, 42, 25, -77, -79, -84, 41, -71, -112, 61, 104, -34, -23, 23, 67, 15, 67, -42, -21, -44, -92, -39, -87, -69, 48, -46, -10, 54, 27, -37, -82, -46, -99, -32, 46, -60, -83, 85, -55, -104, -84, -71, 3, -31, -22, 87, -5, 17, 4, -111, 10, 3, 75, -75, 92, -1, 42, -27, 57, 0, 60, -85, 6, 97, 59, -72, 65, 62, 61, 31, -71, 79, 55, -92, 30, 19, -56, 2, -58, 52, -105, 31, -11, 67, 73, 18, -32, 76, -17, 18, -48, -40, -21, -80, -23, 26, 77, 31, -79, -95, 91, 26, -36, 82, 44, 43, -8, 48, 75, 52, -99, -48, 83, -65, 74, -109, -25, 11, 94, -36, 102, -69, 38, 7, 27, -45, -54, -108, -40, 81, -62, 72, 30, 93, -99, -54, -93, -34, 81, 30, -73, 56, 44, 48, -96, -97, 18, -18, 42, -23, -54, -31, -11, -69, -52, 90, -57, 72, -10, 24, 30, 10, -84, 81, -24, -11, 38, -88, 30, 24, 18, -109, -27, 50, 26, 85, 7, -53, 86, 108, -68, 36, -22, 12, 27, 86, -47, -34, 61, 39, -41, -8, 49, -78, -62, 49, -6, 51, -21, -3, 34, -43, -61, 68, -61, -72, -88, 6, -41, 5, -20, -78, -47, 19, 42, -39, 10, 79, -24, 87, -23, 102, -35, -80, 46, 43, -26, -41, 32, -57, -36, 61, 73, 37, 99, -62, -57, 69, 89, 20, -77, 27, -41, 48, 92, -83, -53, 4, 53, -23, -103, -7, 14, 63, 36, 57, -3, -77, 33, 70, -51, 104, 43, -42, -108, -66, -73, 12, -55, -64, -18, 100, -30, 26, 3, -83, 78, 11, -37, -42, -83, -56, -30, -96, -94, -65, -11, -22, -93, -94, -38, -83, -8, 105, -81, 46, -53, 21, -19, -57, 5, 47, 112, -63, 52, 79, -83, -15, 45, -93, -95, -96, -33, 54, 22, 2, 87, -66, -59, -79, -68, 6, -84, 56, -88, 25, -68, -40, 23, -53, -105, 91, -18, -76, -40, 36, -85, 89, 22, -55, -12, 10, -34, 32, 0, 57, -93, 58, 83, -39, -31, 43, 70, -42, -48, 55, -34, -24, -30, -77, -67, 3, 62, -64, -33, 29, 41, 77, 86, 5, 10, 101, 32, 57, -89, -83, -92, 43, 11, 15, -36, 90, 75, 3, 32, 93, 61, -37, 64, -68, -56, -62, -105, -43, 84, -58, 24, -25, -13, -8, 45, 35, -17, 39, 35, -20, -35, -37, 
  53, 71, 35, 8, 23, -1, -22, 89, -55, -15, 56, -18, -49, 29, -97, -16, 91, 15, 67, 50, -58, 53, 43, -86, 1, 89, -77, 1, -78, 68, -13, 76, 55, -29, 64, 47, 70, -37, 4, -69, -27, 9, -43, -72, -84, 81, 72, 96, 1, -14, 59, -13, -89, 46, 40, -18, -65, -56, 11, 27, 118, 56, 75, -85, 20, -7, 83, 75, -23, -75, -54, 108, -12, 2, 56, -88, 69, 99, -64, -2, -11, -74, -59, 101, -77, 23, -54, -89, -93, 30, -66, -42, -90, -41, 44, 94, 40, -68, 97, -37, 28, 42, 50, 41, 0, -37, 46, -23, 79, -27, 36, -23, 71, 81, 22, 26, -44, 25, 93, 87, -36, 64, -70, 96, 30, -47, 12, 100, 47, -88, 33, -63, 16, 33, -49, 58, -44, 91, 99, -64, -51, -56, -70, -61, 72, -18, -51, 35, 72, -35, 55, -80, 1, 55, 6, 32, -80, 3, -88, 57, -104, -39, -10, 21, 9, -18, -70, 3, 4, -94, -19, 39, 95, -5, -7, -21, 65, 79, 82, -5, 82, 40, 18, -47, -63, 60, 23, -27, 39, -92, -24, -78, 87, 9, 29, 99, -93, 71, 54, -30, 33, 87, -48, -80, 10, -57, -27, 91, -69, -15, -42, 54, -79, -46, 80, -98, 97, 9, 23, -47, 93, -91, -84, 4, -79, 66, 96, 10, -46, 80, -90, 1, -21, -86, -96, -34, 14, 63, 14, 67, -49, -79, 93, 5, 101, 68, 105, -7, 37, -98, -97, -81, 53, 96, 89, -3, -81, 43, 37, 43, -38, -37, 46, -18, -59, 1, 81, -30, -75, 91, 64, -81, -23, -50, -12, -99, -14, 13, -1, -12, -74, 30, -45, 57, 63, -16, -68, -91, 108, -83, 44, -27, 14, 38, -39, -74, -49, -81, 1, 66, 10, 94, 10, -70, -34, -17, 9, -97, 72, -91, 16, -17, -28, 49, 61, -76, -29, -65, 70, 44, -58, 92, -102, 107, 35, -104, -74, -9, -18, -88, 50, -104, -24, 5, 63, 89, 79, -13, 65, 1, 42, 74, -24, -94, 44, 28, 51, -97, 102, -76, 71, 48, 66, 58, -39, -49, 23, -78, 87, 88, 26, -47, -17, 77, -95, -79, -85, -55, -6, 20, -61, -89, 27, 103, -88, 70, 71, -81, 71, -58, 74, -56, 55, -94, 82, -83, -2, 91, -105, 102, -48, 77, 0, 23, -29, -81, -97, -99, -55, -12, -99, 91, -2, 101, 44, -61, 37, -49, -54, -53, 86, -88, 20, 84, -51, 42, -74, -99, 98, 73, -50, -81, 108, -25, -91, -41, 66, 28, -12, -60, -12, 75, 78, 78, 55, 106, 77, 45, -21, 54, 11, 31, 72, -101, 97, -47, -17, -49, -89, 54, 83, 67, 4, -77, -30, 35, 107, 31, 19, 45, -75, 87, 87, -35, 47, 18, -70, -41, -74, 31, -57, 42, -45, 14, -31, 41, -43, -20, -93, -32, 44, 39, 18, 4, 26, -89, -77, 61, 82, 95, -61, 29, 72, 17, -41, -85, 58, -33, -101, 93, 33, -71, 86, 13, -37, -44, -71, -35, 16, 39, 83, 63, 69, 91, 67, 62, -78, -26, -62, -76, 22, -71, 8, -19, 40, -36, -63, 79, 88, 1, -78, -82, -5, -18, -27, 6, -64, 22, -15, -26, 26, 39, -35, 50, 68, 53, 39, -75, 60, -13, -95, 65, -23, 22, -98, -43, 12, 9, 71, -32, -50, -44, 63, -64, -22, -54, -77, 79, 92, -3, 75, 11, 73, 7, 9, 63, -44, 3, 97, 83, 10, -72, 27, 18, 11, -10, 2, -54, 92, -76, -41, -10, 17, -89, 22, -37, -102, 49, 86, -46, 
  -16, -105, 49, -50, 32, 52, 68, 74, -7, -10, -68, 18, -43, -77, -84, -56, 95, 63, -64, 51, -6, -97, 31, 48, -2, 2, -17, -77, 28, 77, 25, 21, 0, 90, -58, 29, -50, -12, 2, -80, 58, -84, -35, -7, 73, -92, 4, -53, -67, -45, -100, 35, 74, -76, -70, -20, 83, -97, -75, -15, -13, -82, -11, 10, -37, -88, -3, 68, 31, -48, 59, -52, -5, 36, 17, -82, 38, -36, -79, 89, -37, -67, 3, 65, 88, -25, 21, -98, -32, 35, -67, -113, -83, 8, 49, -32, 57, 42, 2, -21, 43, -10, -24, -4, -44, -75, 76, -34, -19, 66, 27, -92, 64, 76, 25, -27, 85, -66, 20, 38, 12, -101, -50, -17, 11, 100, -23, 3, -78, 47, 7, -52, -40, -85, -54, -18, -74, 112, -55, 14, 65, 79, -92, 79, -28, 10, 73, -44, -37, 30, 29, 80, 58, -81, -32, -34, -82, -92, 101, 82, 95, -2, 29, -75, -90, -72, 49, 53, -116, 9, -49, -44, 68, 10, 46, -61, -91, 68, 45, 77, 71, -11, -50, -79, 20, 79, -77, 89, 100, -24, -98, -71, -81, 82, -91, -72, 59, -9, -82, -72, -50, -70, -77, -37, 28, 99, -31, -81, -69, -15, 47, -60, 77, 17, -70, -72, 2, -82, -40, 65, -23, -64, -21, -59, -53, 45, 62, -58, -78, 69, -102, 26, 76, 29, 61, 55, -27, -27, 54, 64, 34, 31, 82, -26, -83, 95, 73, 26, 46, 16, 67, -63, 55, -73, 100, -100, 59, 6, 43, -16, -50, -72, 69, 89, -97, -35, 103, 89, 28, 96, -59, -61, -24, 4, -37, -70, -46, 68, -30, 23, 48, 75, -13, -87, 29, -70, -85, -38, -95, 25, 33, 101, -57, -28, 30, -20, -29, -58, 18, -64, -104, -7, 89, -31, 100, -22, 37, 61, -18, 34, -9, -48, -65, 50, -73, -30, 62, 9, 96, -18, 44, 39, 99, 95, -76, -90, -19, -67, 50, -86, 16, 42, -63, 98, 68, 6, 95, -13, -62, 7, 96, 20, -72, -22, 4, 35, 44, -53, 18, 29, 19, -39, 53, 75, 53, -12, 33, 60, 16, -89, -9, -52, 79, -59, -86, 28, -111, -93, -82, -65, 119, -22, 75, -84, -8, -70, -47, 55, -37, -51, -54, -59, -26, -29, 22, -92, 87, -81, -28, -4, -46, 74, 43, -91, -67, 95, -13, 99, -86, 58, 100, 100, -101, 93, 3, -33, -74, 65, -11, -1, 39, 78, -18, 29, 10, -38, -53, 75, -28, 89, -35, -93, 26, -51, 29, -23, -85, -14, 32, -2, 37, 92, -110, 10, -29, -37, 59, -98, 8, 37, -33, 43, -15, 76, 63, -22, -58, -35, 28, 87, 65, 38, 3, -94, -91, 23, 1, 10, -65, -66, 98, 63, 58, -57, 44, 105, -93, 18, 64, 32, -30, -21, 18, -18, -6, -95, 75, 4, -28, -94, -70, -47, -20, 19, -2, -43, 28, -6, 76, -39, -7, 48, 76, -32, -72, -84, -88, 79, -11, -58, 14, -45, -93, -1, -53, -41, -40, 50, -61, 15, -48, 16, 60, -83, 76, -72, 28, -37, 7, 8, -88, -66, -87, -36, 39, 2, 76, -31, -41, 27, 99, -89, -90, 85, 49, -12, -76, -88, 20, -14, 77, -16, 30, -79, 2, 108, -19, 63, -49, -92, 40, 99, -65, 82, -38, 97, 57, 75, -95, 84, 60, -8, 82, -19, -26, 12, -70, -12, -7, 34, -104, -64, 47, -55, 48, 109, 23, 60, 39, 81, 38, 107, 22, 45, 28, -91, 5, 50, -40, -66, 51, -90, 11, -1, -63, 72, 86, 86, 8, -90, 
  -86, 85, 14, 17, -75, -67, -47, 23, -96, -38, -52, 22, -46, -96, 13, -58, -85, -112, -62, -96, 71, -74, 36, 20, 80, -78, -100, 91, -78, -85, 38, 26, -37, -39, -23, 38, -25, -95, -69, -76, 43, 59, 19, -69, 52, 26, -53, 52, -98, 6, 14, -34, 48, 14, -14, -13, -41, -47, -9, 66, -12, 69, 49, -71, 67, -21, 24, -39, -63, 79, -14, 57, 26, -3, -65, 21, -99, 12, -97, 52, -86, 37, 43, -101, 94, -28, 100, -11, 87, -3, 83, -32, -38, 66, -27, -48, -43, 50, -70, -43, 46, -36, 56, -70, -1, -20, -8, 2, 100, 36, -46, -79, 66, 50, 19, -22, 28, 18, 54, 37, 16, -87, -24, -35, 4, -80, 96, -14, 106, 88, 90, -19, -83, -12, -77, 97, 41, 78, 12, 19, 61, 48, 91, 106, -84, -11, -46, -100, 20, 30, -48, -72, 32, -80, -4, -35, 43, 76, -23, 74, -96, -50, -19, -51, -69, -13, -27, -36, -43, 80, 33, -87, 47, 21, 25, -90, -14, -42, -2, -89, 29, 98, -28, 14, 20, -38, -36, -82, -45, -75, 35, 44, -92, -44, 46, -65, 11, -23, -79, 82, -11, 41, 62, 80, 52, 52, 99, 65, 114, 64, -65, -75, 49, -53, -19, -59, 103, 23, -17, -38, -4, 108, 68, 61, -53, -92, 106, 16, -3, 70, 10, 0, 11, 108, -64, 96, 89, -1, -56, 100, 6, 106, 54, -57, -4, 37, 63, 84, -100, -3, -46, -83, -48, 28, -93, -28, -76, -63, 4, -72, 46, 77, -28, -93, 3, 29, -55, -95, -57, -14, -31, -20, -104, 50, -42, -23, -93, 105, -94, -94, 87, -19, -79, -78, 47, 91, -73, -31, -48, -10, -94, -77, -36, 28, -3, -34, -83, 97, -19, -45, -9, 80, 48, 37, 65, -28, 100, 2, 84, 52, -34, -9, -64, 100, 61, 4, -55, 4, -58, 74, 64, 18, 67, 34, -86, -95, -98, -16, 12, 85, -47, 28, 82, 24, 81, -54, -38, -10, -13, -51, 11, -62, 81, 19, -11, 86, -92, 25, -13, -75, 34, -60, 80, 82, -77, -27, 57, -52, -88, 9, -96, -101, 96, -40, 6, -1, -15, 68, -56, -94, -98, -89, 33, -77, 98, -96, 46, -86, -23, -98, -74, 75, 17, -52, 70, -10, -26, -19, -83, 51, 59, 58, -22, 81, 57, 79, -59, 61, -87, 101, -25, 50, -54, -20, 80, -55, 60, 90, 25, -40, 14, -100, 41, -83, 87, -99, -9, 88, 44, 92, -51, -65, -21, 49, 82, -105, -23, -88, 31, 0, 82, -88, -77, 86, 93, -24, -87, 51, 80, 28, 74, 85, 18, 69, 39, 50, -49, -72, 8, 17, -1, 18, -12, -9, -90, -69, -59, 94, 52, -45, 39, 86, -96, 40, 8, 46, 30, -93, -27, 36, 14, 80, -25, -35, 72, -18, -37, -59, 34, 10, -7, -30, 60, -16, -57, 23, -41, -80, -79, -75, 36, -25, -64, -18, 92, -86, -97, -83, -15, -34, 65, -77, -61, -38, 68, 3, 51, 4, 90, 27, -81, -101, -99, 26, -99, 36, 7, 4, 55, -52, -29, -70, 62, -1, -45, 90, -67, 95, 49, 5, -93, 98, 47, 10, -8, -18, 57, -92, -51, 7, 45, 86, 35, 101, -83, 60, 62, 42, -95, -89, -102, 54, -26, -51, 35, 96, -94, 86, 61, -101, 65, 103, 96, -62, 43, 58, -82, -54, -58, -23, 10, -36, 80, -76, 92, 0, 57, -68, 106, 85, 61, -101, 33, -100, -91, -33, -101, 45, 63, 8, -59, 102, 43, 21, -91, -87, 26, -69, 56, 10, 
  82, 33, 90, 5, 5, 71, 69, -42, -57, 73, -51, -69, -8, 106, 93, -38, 2, 54, -1, -45, -67, 13, -51, 47, -9, -72, 55, 55, -90, -33, 61, 110, -53, 48, -22, 89, -31, 45, -66, 23, -79, 99, 66, 36, -88, 15, 65, -24, 83, 23, -40, -42, 102, -94, -43, 73, 85, -54, 55, -61, 32, -15, -27, 99, -69, -96, 59, 105, 67, 67, -72, -49, 78, -7, 85, 30, -38, -14, 56, 16, -66, -83, -14, 71, -17, 85, 76, 39, 85, 72, -43, 76, 74, -14, 17, -123, 94, 95, 46, -103, 106, -51, -37, 76, -78, -57, 114, -105, -13, 24, 98, -101, 62, 39, -101, -82, -80, 84, -22, -84, 6, 87, -11, 26, 111, -111, 73, 1, 80, 69, 64, 42, -83, -76, 64, -16, 0, -55, 50, 78, 32, 17, -40, -17, -22, 59, -14, 75, 18, -59, -29, -61, -86, -93, 98, 23, -69, -7, 17, -60, -5, -11, 87, -103, 77, -88, 48, -69, -41, -49, -64, -54, -10, -11, -92, 79, 73, 33, -1, 81, 103, -47, -64, -98, -99, 42, -32, 66, 6, 78, 24, 85, -54, 70, -85, 15, -78, -80, -72, 2, -70, -64, -33, -82, 27, 70, 32, -92, 67, -54, -41, -56, 93, -1, -68, 63, -75, -89, 50, -50, 43, 40, 57, -33, 76, 96, -15, -2, -54, 63, 91, -42, -54, -3, 75, -12, 75, 38, 38, -8, 29, -15, 28, 45, -15, -98, 106, 55, 11, -9, 82, -72, 104, -63, 2, -44, 32, 41, -34, 75, 14, 88, 32, 27, 3, 49, -73, -24, 24, -75, 27, -81, -60, -96, 63, 13, 79, -25, -88, 22, 12, -15, -85, 10, 2, -63, 37, 24, -88, 72, 104, 93, 8, 34, 52, 75, -82, -36, 69, -79, 110, -101, 34, -11, 45, -84, -35, 75, 33, -105, 70, 102, 84, 21, 91, -44, -77, -46, 37, -85, -91, 13, 59, -54, 44, -12, 14, 75, -10, -97, -55, -54, -51, -8, 64, -58, -90, 20, 85, 94, 77, 3, 89, -74, 30, 1, -74, -89, 77, 72, 39, -57, 87, -66, 7, 57, -98, 57, -30, 106, -103, -16, 40, 51, -98, -52, -54, 55, 8, -95, 73, 79, -40, -71, -96, 50, -6, -65, 49, -94, -30, 35, 87, -8, 6, -86, 101, -55, -88, 58, -28, 13, 105, -43, 86, -73, 6, 42, 104, 63, 9, 87, 1, -84, -90, -16, 99, -73, 68, 51, -84, 61, 101, -69, -31, 76, -95, -94, -40, 16, -42, -31, 45, 62, 107, 93, -11, -55, -68, 66, 48, 73, 43, -49, 75, -1, 71, -106, -77, -87, 6, 58, -73, 86, -82, 92, 43, 18, 106, -112, 100, -17, 35, -82, 19, 61, 85, 32, 6, 56, -5, 61, 1, -41, -9, 27, 103, 68, -80, 32, -49, -64, 61, 23, 41, 42, 81, 83, -15, -78, 11, -10, -36, 57, -71, 83, 90, 40, -68, -83, -97, -43, 3, -68, 35, 27, 68, 16, 57, 30, 15, -49, 3, -61, 63, -98, -48, -88, -57, -55, -74, -63, 85, 106, 9, 9, 10, -106, -89, 49, -17, -85, 63, -16, -46, 45, -81, -97, -55, -109, 9, -68, 102, -67, -13, -37, 96, -23, 36, 36, 22, 33, 81, -80, 79, 24, 112, -108, -23, 69, -52, -82, 59, -12, 6, 4, -24, -53, 49, 78, 64, -85, -67, 55, 11, 26, 82, 97, 55, -47, 5, -94, -9, 71, 10, 95, -22, 63, 91, 6, -33, -43, 32, -80, -8, 12, 36, -88, 30, 60, -31, 24, 97, -97, -29, 40, -52, -44, 58, -7, 
  45, 80, -22, -75, 63, -91, -78, 81, -42, -55, -12, -7, -9, -31, 62, -79, -15, 88, 34, 4, -2, -63, -4, -79, -94, 72, -44, 44, 27, 22, -31, -27, -74, -35, 76, 19, 54, 87, -16, 78, 58, -69, 40, 73, -111, -16, -23, 78, 98, -13, 58, -71, -79, 68, 59, -32, 77, -52, 78, -97, -87, -10, 7, 13, -66, 80, 57, -93, 54, 78, 25, -8, 51, -92, 25, -20, -37, -7, 110, 45, -100, -76, 15, -18, -81, 81, 53, -37, -110, -92, -76, -76, -18, -73, 19, 45, 27, 62, 14, 37, -28, 83, 24, -35, 51, -77, -41, 92, 81, 40, 74, 68, 39, -19, 76, 23, 56, -42, -67, -14, 17, -76, 12, 30, -42, 111, -33, -23, 60, -57, 8, -92, 49, -87, -70, -83, 73, -26, -27, -71, -64, 34, 39, -51, -74, -19, 22, 74, -64, -42, -47, -43, -32, 94, -4, 50, -99, 62, 69, -66, -30, -42, -83, -7, 5, 67, 64, 47, -64, -65, -4, 56, -94, -28, 30, -75, 42, 14, -98, -89, 77, 85, -49, 92, 77, -70, -75, -56, -87, 96, 55, -14, 46, 12, 73, 62, -104, 72, -73, -4, 48, 102, 30, -15, 49, -54, 35, 45, 82, -80, -27, -7, 49, 33, -25, 20, -80, -67, 72, -69, 6, -35, 45, 97, 89, 80, -9, 74, 41, -21, 90, -41, -96, 2, -79, -31, 101, -11, 15, -66, 28, 10, 3, 79, -9, 65, 44, 56, 101, 83, -2, -64, -46, 3, -76, -9, 37, 12, -55, -56, 23, 78, 93, -23, -60, -46, -4, 53, 74, 97, -78, -51, 92, -16, 17, 105, 13, 41, 22, 72, -72, 38, 14, 4, 71, 59, 32, 90, -54, 35, -43, -22, -31, 50, 101, -36, -49, 24, -86, -82, 81, 88, -72, 78, -77, -47, -71, 99, -78, 9, -64, 70, -38, -71, 67, 75, 103, 96, 24, 47, 15, 32, 73, 91, 87, 88, -51, -13, 107, -80, -16, -9, 37, 86, 25, 16, -18, 76, 73, 76, -58, -87, 95, 106, -39, -5, 44, -84, -87, 81, -88, 68, 18, 33, 55, 25, -32, -3, -77, 106, -18, -43, -90, -60, -38, 70, -85, -21, 14, -112, 92, 69, -15, -33, 31, -52, 103, 85, 79, -76, -86, -21, -75, -17, 69, -75, 61, 53, -28, 43, 87, 32, -23, -75, 105, -105, 83, 53, 81, 27, 10, 56, 61, 60, -18, -106, 86, -72, -95, -67, -103, 69, -44, 28, -89, 18, 34, -105, 58, 31, 93, 29, -37, -80, 19, 11, -100, -37, 99, -86, -24, -35, 7, 103, -50, 97, -49, -57, 86, 24, -56, -61, -62, 20, -35, 59, -84, -94, -90, 24, -31, -83, -78, 12, 93, 4, -48, 42, -95, 47, -84, 31, 71, 34, 70, -74, 99, -4, 69, 102, -101, -85, 19, 0, 52, 92, -86, -43, 48, -76, -49, 33, 105, 33, 8, -14, 39, -52, -3, -59, 62, -99, -7, -15, 43, -47, -86, 32, -28, -52, -10, 39, -63, -60, -5, -31, -55, 18, 4, 73, 39, -73, 21, -23, -59, 63, 92, 51, -69, 40, -7, 70, 43, 15, -38, 48, -92, -88, -106, -23, -67, -31, -75, 37, -92, -50, -13, 44, 16, -91, -69, -61, 90, -78, -37, 11, -88, -67, 67, -6, -59, -98, 87, 11, -56, 107, -23, -92, 86, 21, -25, 44, -10, 8, -34, 32, 37, 108, -33, -33, 16, 94, -14, -34, -48, 56, 58, 89, -81, -37, 68, -40, -8, -42, -72, 14, -26, -17, 52, 38, -77, -67, 103, 84, 32, 72, -11, 71, 38, -89, 
  -3, 3, 45, 48, -68, -89, -114, 82, 46, 91, -41, -49, -15, -18, 36, -2, -9, -93, -13, 30, 42, 65, -80, -56, 49, -85, 17, -92, 59, -42, -85, -94, 66, 87, -54, 104, 19, 87, -68, 44, 29, -80, -4, 16, 117, 51, 6, 59, 71, -21, 11, 86, 103, 69, -34, 20, 53, -82, 10, 109, -15, 105, 112, -2, 30, -4, -28, -85, 0, 23, 98, 12, -68, 52, 18, -42, -10, -57, 37, -41, 67, -42, 79, 84, 89, 12, -65, 59, -84, 92, 79, -11, -6, -18, 33, 78, -106, -77, 21, -27, -37, -6, -28, 22, 77, -104, 98, -53, 53, -58, -92, 23, 105, 62, 26, -34, 66, -20, 69, 80, -47, 58, 85, -18, 50, -50, 8, -66, 38, 91, 65, -99, 90, -77, 42, -30, 52, -74, -69, 62, 100, 13, 16, 64, -40, -50, 94, -33, 85, 92, 0, 68, -39, 2, 6, -68, -20, 14, 25, -62, -33, 17, -45, -6, 100, -55, 43, -40, 64, -2, 29, 30, -7, -61, 40, -42, 5, 34, 91, -73, -9, -70, 45, 28, -3, 3, -102, 83, -56, -2, -80, -43, -79, -96, -48, 90, -51, 11, -36, -32, -80, -28, 3, -78, -114, 58, 0, 80, -4, -29, 59, 18, -74, 101, -65, -112, 53, 47, -106, 40, -65, 88, -64, 29, 92, -101, -45, 40, 34, -36, -17, 71, -5, -99, -27, -18, -69, 26, -71, 77, 64, -52, -3, 9, 78, -100, -89, 0, 2, 29, 17, -98, 24, -47, -103, -93, -82, -70, -43, 41, 82, 70, 53, -45, -114, -30, -95, -72, 24, 53, -49, -37, -101, 96, 105, 16, 47, -17, -85, 7, 32, 41, 82, -50, -87, 87, 101, -83, -74, -63, 1, -35, 96, -5, -29, -2, 44, -19, 46, -28, 100, -3, 3, -85, 98, 12, -83, 58, 56, 100, 67, 35, 30, 90, -44, -32, 37, 85, -82, 38, -70, 101, 57, -94, -16, -37, -87, 77, -50, 42, 63, 79, -77, -16, 94, -102, -13, 59, -103, 75, -86, 26, 30, -37, -83, 65, -39, 89, 32, -21, -15, 13, 58, -108, 2, -55, -82, 56, -2, 33, -51, 69, -93, -88, -40, -3, -52, 40, 12, -68, -93, -87, 63, -64, -83, 91, -13, -16, -22, 9, 19, -38, -102, -74, -28, 43, 24, 12, 20, -46, -20, 73, -86, -6, -35, 25, 61, 85, -71, 88, -23, 91, -97, 78, -70, -51, -20, 6, 109, -94, 0, -63, -66, 71, -35, 71, 90, -41, 93, 106, -23, -112, -75, 24, -97, 66, -61, -59, 84, -15, 22, 12, 95, 44, 34, 14, -73, -86, -67, -8, 40, -78, 88, 55, -3, 29, -58, -3, 100, -6, 14, -22, -95, -13, 3, 105, -30, 53, 38, -21, -54, -63, 13, 36, -1, -13, 99, 96, -15, -33, 38, 94, 86, 63, 42, 23, -39, -101, -32, 96, 29, 38, 46, 46, 51, 17, -68, -25, -26, -71, 48, 0, -57, 98, -84, -96, -34, -26, -71, 17, 39, -62, -30, -97, -27, 75, -95, -84, -35, -103, 29, 72, -99, 85, 75, -79, 23, -49, 67, 83, 52, 19, 103, 86, -6, 75, -92, -107, 43, 87, 1, 101, -74, 58, -60, -95, -47, 33, -13, 25, 18, -102, -47, -65, 1, -47, 44, 47, -59, 19, 52, -25, -44, 7, 46, -60, 19, -82, 70, -85, -17, -93, -108, 27, -75, -86, -99, 0, -7, 45, 56, 12, -32, -110, 21, 73, -9, 82, 49, -108, 64, 104, 92, -88, 93, -62, -103, -26, -28, -51, -33, 58, -121, 102, -68, 14, -9, -107, 66, -68, 
  -81, 49, 25, -90, -68, 33, 40, -41, 90, 20, -13, -28, 53, 63, -21, -107, -109, -64, 62, 85, 64, -45, -92, 78, -118, -53, -52, 76, 15, 61, -49, 1, -44, -24, -65, 67, 2, 74, -85, -91, 82, 108, 19, -35, -75, 88, 8, -58, -47, 25, 56, 84, -80, -51, 30, -18, -16, -84, 89, 101, 87, -2, 106, -34, 58, -93, -92, 16, 14, -24, -54, 61, -70, -59, 78, -8, -89, 8, -107, -41, 103, 7, 117, -87, 24, 94, 0, -95, 90, 40, -101, 85, -90, 35, 93, -19, -100, 115, 88, -82, 34, -86, -83, 97, 89, -57, 22, -18, -85, -25, 29, -103, -77, 36, -57, 15, 92, 20, 8, -57, 26, -71, 47, -75, -78, -17, -58, -68, 8, -77, 15, 31, -35, -75, -5, -64, -78, -43, -116, -40, 92, -47, 72, -99, -11, -46, 33, 27, 15, -61, 26, -70, 73, 98, -44, 20, -102, 83, 23, -7, 99, 86, 56, 54, 52, -47, 56, -95, 27, -56, -32, -52, 50, 81, -8, 69, -99, -56, 60, -34, 26, 34, 63, 81, -57, -76, 31, 51, -89, -37, 23, -103, 8, 29, 48, 78, 105, 48, -69, 39, 34, -102, -45, 3, 11, 98, 33, 13, -12, -97, -84, -84, 40, -36, 34, -83, -15, -92, 76, 32, 83, -107, 58, 0, 30, 72, 93, 46, 39, 21, -36, 68, 12, 23, 88, 68, -54, -4, -32, -109, 10, -80, 52, -58, -82, -116, 44, 16, -85, 13, -4, -105, -22, -66, 63, -103, -8, -102, 84, 68, 69, 41, -96, 51, 30, 79, 76, 55, 1, -72, 39, -79, 46, -79, -58, -74, -2, -92, -30, -12, -101, -39, 13, 75, 5, -36, -91, -46, 70, -48, -23, -94, 20, -13, -9, 71, -24, 55, -10, -50, -64, -41, -106, 64, -75, -23, 57, 39, 15, 50, -87, -8, -15, -48, -25, 13, 41, -53, 6, -65, -66, -31, 47, -90, -3, 72, 78, 33, -84, -58, -67, -26, 79, 23, -86, -55, 18, 95, -35, 66, 54, 62, 58, 59, -57, -84, -100, -24, 42, -36, -87, -26, 52, -5, -54, -29, -33, 51, -64, 104, -13, -14, 79, -97, 51, -72, 23, -69, -111, 11, 6, -95, 70, 8, 19, -103, 15, -29, 61, -69, -29, -47, -21, -29, 74, 104, -64, 90, 22, 38, 86, -47, 71, 99, 15, 42, -3, -74, 86, -59, -31, 22, 80, 34, 24, 95, 55, 89, -87, 8, 80, 103, -75, -33, -37, -41, 25, 11, -79, -39, -6, -34, -99, -66, 25, 81, 100, -2, -81, 36, -29, 0, 19, -82, 28, 38, -22, -80, -20, 81, 40, 69, -102, -23, -7, -7, -40, -87, -104, 93, -87, -51, -55, 24, -78, 13, -69, 10, -7, -47, -65, -63, 49, -101, -64, 59, 68, -73, -82, 35, 49, 67, 76, -45, 51, -25, -14, 107, 71, -65, 77, -69, -31, 53, 61, -23, -74, -70, -60, -82, -17, 37, -15, -19, 12, 11, -57, 83, 8, -10, -17, -89, -10, 13, 47, -26, -101, -51, -25, -48, -12, 73, -29, 38, 61, 97, -64, 33, 0, -105, -14, 13, -26, -47, -6, 16, -33, -100, 80, 17, 78, 88, -97, 56, 73, -15, -30, 81, 3, 105, -29, 52, -76, 84, -23, 82, 13, -106, -58, -52, -98, -29, -37, -78, 57, -58, -3, -67, -76, -92, 82, 33, -11, -76, 52, -102, 57, -13, 20, -16, 68, -96, -26, -60, -101, -83, 74, -3, 84, 44, -85, -53, 87, 100, -56, 38, 48, 104, -100, 76, -1, 2, 47, 95, -84, -29, 31, 15, -8, 1, 
  -51, -10, -26, -42, 4, 34, -34, 25, -102, -27, 98, -33, -25, 40, -24, 60, 4, -89, 39, -28, 8, -28, 64, 9, -81, -33, 3, 36, -95, -51, 47, 19, -84, -45, 16, -70, -21, 109, 90, 84, -92, 13, -77, 16, 58, 50, 23, -108, 116, -35, -74, 21, -94, -24, 79, 54, -93, 28, 69, 89, 34, 60, 74, -64, -87, -4, 44, 73, -50, 55, -22, -2, 49, -4, 89, 65, 66, 60, -50, 30, -51, 52, -69, 15, 0, 64, 2, -68, -51, -13, 37, 45, 11, -67, 48, -65, 86, 97, 35, 22, -76, -1, 14, -51, -41, 76, 24, -68, -88, -83, -32, -10, -77, -25, -59, -65, -88, -45, -21, -29, -89, 79, 62, -102, -59, -108, 69, -75, -45, 79, 38, -91, 19, -13, 54, -102, -103, -73, -14, 103, -51, -33, -94, -95, -68, 53, -19, -60, 26, 16, 67, 79, 65, 71, 64, -14, -54, 39, 65, 14, -87, 76, -62, 45, 94, 48, -5, 13, -13, 88, 97, -77, 55, 40, -4, -38, 81, -22, -71, -80, -91, -88, -88, 104, 74, 76, 14, -60, -76, 20, 68, 5, -74, 15, -80, -55, -9, -58, 86, -61, -61, 23, -79, 42, -40, 87, -13, 99, -17, 23, -5, 42, -92, -64, -105, 108, 93, -55, 9, 22, -5, 96, -31, 15, 23, -66, -55, 94, -84, 60, -91, -34, -89, -38, -89, 45, -40, -92, 56, -44, -45, -34, -15, -58, 89, -19, 43, 77, 35, -107, 14, 101, 67, 98, -77, -15, 73, 29, -2, -36, -70, -35, -92, 13, 41, -81, 115, -55, 25, 27, -46, -60, 13, 47, -74, -53, 6, -16, 74, 34, -102, 107, -21, 25, -46, -40, 37, -53, 59, 102, -66, 4, -2, 31, 83, -63, -54, -29, -12, -92, -105, -3, -21, -69, 9, 20, 75, 54, 18, 15, -68, 78, -97, 62, -59, -55, -74, -39, -36, -27, -44, -25, 64, 67, 96, 80, -43, -28, 36, -48, -46, 53, 33, 19, 54, 80, 91, 65, 90, -39, 20, 18, -91, -74, 58, -14, -97, -80, -44, 30, 37, -10, -78, 33, 35, -85, 30, 73, -22, 7, 64, -24, 19, -91, 97, -99, 6, -68, 90, 19, 27, -1, -33, -88, -19, -63, 95, -45, -60, -24, 69, 101, -53, -8, -51, 77, -86, 95, 62, -74, 93, 9, -83, 57, 47, -58, -66, -25, 6, -61, 26, -110, 63, -6, 18, 90, 107, -42, -89, -60, 62, -25, 28, 24, 49, -67, 62, -58, 89, -66, 15, 86, -80, -65, 66, 43, 9, 37, 96, -77, -42, 86, -67, 77, -73, 9, -16, -87, 48, -67, 37, -12, 67, -44, 88, 38, -15, -80, 8, -2, 65, 85, -36, -20, 97, 39, -82, 24, 59, 42, 18, 80, 24, 88, -94, 99, -72, 61, 44, -34, -26, -91, 29, 4, 99, 42, 29, -22, 18, 67, 3, 36, -9, -95, -74, 8, -47, 72, 14, 59, 5, 29, -1, 64, -21, 4, 57, 76, 5, 11, -32, 52, 102, 7, 47, 16, -59, -17, 87, -103, -69, 34, -42, -80, -12, -76, -12, 91, 37, -93, 100, 84, 80, 73, -92, 73, -3, 66, -16, 10, 11, 100, -93, -89, 30, -51, -71, -39, -80, -75, 75, -60, 52, 74, -80, -65, -15, -28, 9, 48, 99, 45, 82, -84, 100, -32, 53, 24, -86, 35, 67, 77, 85, -67, 66, -25, -78, 88, 97, -70, 42, -35, 90, 65, 65, 13, -58, -60, -68, -11, 82, -43, -25, 50, -106, -18, 71, -76, 85, -10, 31, -61, -48, 24, 58, 25, 34, -41, 51, -1, 
  -85, -26, -25, -51, 88, -59, 55, 80, -23, -3, 44, 35, 94, -39, -101, -38, -8, -4, 64, 61, 35, 42, 54, 79, 84, 82, 23, 46, -46, -98, 28, 26, -76, -38, -80, 22, 90, -11, -68, -17, 64, -16, 23, -5, -13, -56, -30, 42, -58, -43, 72, -18, 68, -77, -88, 75, -91, -53, 71, -25, 35, 50, 48, -25, -108, -19, 38, -83, 0, -46, 79, -17, -22, 34, -42, -57, -92, -7, 3, 20, 43, -32, -61, -1, -54, -100, -19, 69, -96, 46, -12, 26, -39, -62, -32, 44, -26, 10, -73, 47, 22, 5, -6, 64, 35, 79, -91, -75, 59, 51, 9, -69, 73, -25, -15, -115, 26, -43, -50, 13, 81, 3, -87, 6, -41, -32, 65, 12, 29, 99, -79, 64, -67, 21, -21, -93, -66, 31, -31, -52, 5, 102, -75, -48, -11, -26, 21, 76, 82, 103, 0, -82, 68, -51, 47, 78, 95, 0, -10, 85, -42, -33, -58, 34, -46, 41, 46, -79, -29, 92, 47, 102, -61, 43, 31, 13, 38, 19, 68, 47, 53, 66, 13, 111, -9, 3, 14, -23, 69, 30, 90, 33, 43, 15, -66, 8, -13, 61, -51, -84, 63, 107, -84, 5, 78, 63, 73, 49, -12, -57, -83, -72, 47, -43, 9, -23, 63, -8, 42, 78, 78, -4, -101, -37, 80, 66, -85, -84, -70, 88, -20, -28, 57, -17, -72, -103, 20, -76, -20, 104, 55, 86, -78, 37, -62, -26, 11, 73, 50, 9, 101, -72, 4, 82, -10, -50, 95, -76, 38, -26, 57, 65, -95, 61, 11, 58, 37, 34, 6, -38, 73, -10, -91, 93, 103, -75, 41, 63, -82, 34, 42, -42, -82, -86, -70, -15, 86, 34, -3, 29, 59, 94, 66, 15, 44, -105, 77, 74, -68, 63, -46, -2, -50, -57, -5, 101, -75, 89, -12, -83, -103, 102, -74, 89, -72, 66, 2, 24, 4, -46, -21, 32, -45, 17, -12, -92, -22, 31, 105, 72, -79, 74, -34, 66, -32, 19, -65, 83, 59, -88, -80, 55, -94, 22, -41, 68, -77, -68, 24, 37, 58, 46, -16, -93, 90, 64, -31, -10, -15, 49, -40, -77, -81, -13, -83, 88, -91, 52, 37, 40, -37, -55, 63, 73, -4, 1, 77, -89, 60, -52, -27, -95, -70, -80, 42, 26, 78, -15, -66, 24, -30, 4, -58, 36, -74, -76, -83, 23, -103, -102, -84, 0, -93, 99, -52, 19, -33, 36, -14, -28, -107, -82, 46, 55, 72, -70, -31, -71, -8, 0, -84, 86, -22, 81, -51, -49, -48, 80, -63, 56, 64, 79, 55, 78, 98, -43, -83, -39, 15, -50, -49, 83, -90, -52, 22, 43, -62, 22, -13, 47, 42, -75, -35, 13, 95, 2, -62, 75, -42, 4, -3, 39, -100, -70, -31, -38, 16, -38, -113, 101, -90, 18, -100, -60, -33, -68, -50, -89, 49, 95, -54, -48, -17, 50, -95, -94, 9, -60, -73, 26, -24, 15, 23, -97, -4, -35, 58, 75, -98, 19, 62, -36, -27, 50, -46, -73, 91, -2, -57, -49, 31, -49, 11, -41, -16, -36, -110, 1, -38, -56, 60, -114, 1, 92, -11, 22, -75, -88, 21, -24, -33, -28, 60, -38, 64, -16, -99, 28, -93, -46, 0, -14, -31, -56, 16, -88, -53, 45, 67, -32, -73, 22, -4, 84, -90, -49, -38, 38, 53, -69, 31, 51, -97, -72, 35, 15, 30, -29, 31, -90, -76, -105, -92, 51, 16, 86, 14, -49, -67, 29, 65, -53, -27, -9, -32, 17, 26, -87, -91, 63, -77, -93, 92, 53, 43, -82, 51, -3, -31, -91, 
  -38, 90, -66, 20, 9, -99, 96, 61, 13, 90, -76, 93, 15, -47, -16, 75, 91, -15, -94, -85, 63, 69, -44, -87, 69, 33, 3, -30, 85, 15, -7, -40, -11, 97, -52, 92, 40, -13, 28, -2, 35, 60, -36, -94, 14, -23, -59, 69, -47, -54, -7, -93, -38, 57, -83, 45, 24, 84, 46, 33, 10, 2, -81, 2, 50, -69, 105, -32, -104, -30, -6, -14, -82, -20, -100, 72, 65, -84, -81, -21, 80, -33, 61, -26, -33, -19, 81, -24, 84, 26, -77, -59, -34, -69, -111, -29, 38, 81, 42, -19, -55, -71, -89, 44, 62, -20, -22, -19, 85, 89, 87, 75, -57, 101, 51, 74, -15, -23, 27, -49, -47, 55, 16, -32, -91, 15, 105, -23, 21, 89, 56, -35, -34, 72, -69, -47, -3, -61, 70, -103, 61, -91, -11, 48, 102, -17, 36, 61, -30, -99, -14, -70, 49, -92, 45, -39, 59, -3, -25, -14, 90, -5, -92, -36, 5, -56, -108, -19, 33, 65, 77, 1, 84, -58, -9, -98, -1, -96, -47, 10, 8, 64, 28, 36, 50, 87, 80, 82, -91, 14, -49, 12, -94, 5, 9, -7, -61, -69, -84, 95, 96, -89, -37, -66, 33, -93, 14, 90, 21, 28, -24, -104, 93, 90, -104, -76, -101, 72, -73, 22, 29, 68, 22, -42, 102, -85, 26, -48, 62, -12, -14, -25, -20, -6, 67, 15, -18, -19, 95, -67, 52, 95, 80, 95, -109, -60, -59, -40, -66, 85, 26, -44, 19, 39, -59, 50, 70, -55, 71, 65, 111, 29, 3, 82, 5, 74, 56, 87, -65, 70, -39, 84, 49, 93, -86, -86, -65, -34, 18, -65, 0, 67, -35, 102, -30, -83, -79, -51, 97, 52, -67, -2, -81, 91, -6, 94, 30, 109, 12, 81, -25, 35, -48, -100, 93, 5, 9, 59, 98, 66, -9, 68, 26, -36, 6, 50, -32, -74, 32, 29, -90, 67, 6, 14, 20, -41, -73, 80, 72, 5, 95, -64, 35, 0, -66, 105, 64, -18, 61, 13, 61, -38, 46, -46, -35, 13, -66, -27, -112, -26, 49, -90, -95, 26, -32, 47, -54, 69, -49, 88, 21, -88, -21, -29, -9, 14, -90, -30, -13, -29, 59, -78, 7, -35, 85, 60, 105, 49, 9, -7, -93, -4, 99, -41, -85, -59, -4, 89, 75, -79, -99, 26, 2, -56, 44, -94, 45, -76, 4, 48, -96, 46, 13, -54, 100, -96, 42, 35, -2, -45, -101, -20, 75, 13, 22, -38, -88, 57, -6, 27, -98, -87, 40, -3, -58, 55, 48, 15, 72, 51, 7, -12, -94, -4, -48, -80, -66, 52, -101, -43, -81, 73, -69, -76, 63, 103, 8, -13, 70, -86, -39, 81, -8, -4, -62, 83, 32, 12, -86, -66, 81, 42, 19, -76, -10, -54, 4, 107, 29, -67, 44, 9, -100, 65, -89, -23, 23, -14, -59, 98, 67, 14, 63, -11, 91, 79, -83, 70, 82, 71, 34, 84, -25, 51, -14, 78, -66, 97, -2, 82, -71, 59, 67, -19, 60, 94, 68, 15, -37, -43, 22, 109, -59, 39, 2, -82, -8, 55, -18, -91, -95, -88, 63, 2, -32, 68, -58, 95, -4, -34, 91, 30, 4, 33, 32, 73, 24, -34, -16, -48, 19, 22, 89, 74, 50, -6, 14, -40, -31, -66, -52, -28, -90, -41, 52, -71, -67, 35, -67, -69, 58, -45, 63, 97, -32, 0, 35, 70, -58, 67, -3, -23, -2, 16, 101, -62, 40, 36, -6, -62, -73, -70, 18, -21, -5, -23, 44, 27, 34, 93, 15, 21, 91, -45, -6, -69, -70, 3, 20, 56, 
  -87, 64, -12, 64, -53, 78, -81, 24, 102, 31, -48, 111, 37, -69, 33, -2, 64, -62, -22, -54, -60, -111, -62, 33, -2, -61, -41, 24, 77, 95, 14, 107, -61, -50, -66, 63, 85, -91, 33, -97, 84, -34, -17, 77, 104, -71, -88, -40, -101, -53, -3, 44, -53, -51, -71, -60, 53, -51, 72, 100, 88, 3, 99, -91, -35, -86, 13, -33, 10, 27, 63, 98, 60, 43, 58, 14, -25, 34, -54, 86, -68, 50, 27, 32, 27, 111, 82, -15, 81, 60, 41, -3, 104, 10, -24, 17, 51, 46, -94, -45, 66, -80, 86, 93, 27, -57, 5, -63, 76, -51, 32, 34, -2, -9, -66, 6, -88, -15, -32, -17, -73, 92, 28, 90, 40, -49, 54, -15, 97, -55, 6, -116, 57, -76, 87, 83, -6, 6, 55, -85, 14, -82, -9, -61, 49, 45, 12, 51, -11, -43, 52, 78, -82, -7, 83, 24, -87, 29, 73, -52, 73, 48, 88, -8, -2, -20, 16, 8, -9, 58, -104, 61, 2, -16, -80, 28, -29, 90, 90, 74, -104, -101, 66, -86, -91, -81, -76, -20, -107, 86, 78, -3, 1, 35, -82, 46, 0, 10, 17, -88, -82, 21, -63, 25, 64, 60, 81, -2, -30, -96, 70, -106, 61, 0, 37, -21, 13, -49, -111, 62, -19, 4, -49, 80, -46, 35, -18, -40, 85, 67, -50, 8, -87, -35, -83, 8, 55, 17, -95, 76, -65, 50, 17, 86, 43, 27, -29, 86, -4, -105, 13, -87, 77, -81, -50, 92, 70, -47, -6, 44, -17, 74, 81, -59, 41, 59, 82, 58, 15, -102, 50, -2, -6, -52, -72, -79, -18, -96, -79, -31, 1, -20, -3, -53, -4, 35, -85, -52, 42, -113, -52, -23, -43, 6, 78, 93, 68, 46, 49, 55, -84, 26, -15, 5, -9, -17, 33, -80, -95, -91, 17, 69, 84, 41, 73, -26, 71, 20, -79, -59, -93, 43, 47, -19, 96, -5, 3, 11, -68, 35, 56, -44, 86, -43, -17, -77, 100, -68, -109, 27, 62, -60, -6, -10, -32, -45, -20, -18, 39, -34, 31, -12, 79, -64, -66, 81, 37, -42, 34, 95, 14, 40, -32, 100, 99, -51, 53, 65, -25, 37, -87, 40, -39, -23, 20, 77, -72, -90, -78, -90, 7, -80, -43, 34, 55, 17, 15, 101, 41, -97, -64, -79, -21, 89, 55, -86, 85, -22, 98, 36, -93, 13, 77, -11, -49, 18, -3, 89, 101, 77, 86, 111, -93, -78, 104, 63, 84, 33, -65, -20, -91, -49, 97, 10, -86, 6, 16, 98, -94, -3, 56, -24, 99, 47, -96, 47, -10, 61, -27, 45, 85, -67, -7, 83, -31, 59, -65, 85, -90, -48, -48, 94, 103, -19, -79, 62, -43, 69, -32, -62, -102, 63, -9, -56, -30, -54, -10, 83, 44, 62, -7, -36, 59, -89, 4, -12, -48, -41, 59, -79, 2, -48, -20, -2, 15, 71, -87, 79, -86, 80, -107, -90, -60, 32, 68, -96, -83, 97, -99, 86, 44, 96, 41, -36, 53, 39, -63, -23, -22, 52, -89, 4, 96, -35, 91, -28, -11, -18, -15, -6, -42, -44, -58, 94, 80, 81, 76, -17, 81, -86, -56, -35, -65, 32, 92, 17, 50, -6, 42, -73, 2, -20, -70, -85, -107, -14, 13, 36, 37, 98, -101, 112, 26, -12, -35, -73, 59, 72, -50, 24, 82, 6, 61, 55, 89, 33, 7, -105, -80, -94, 55, 96, 1, -62, 80, 37, 37, -34, -13, 13, -17, -88, -28, 52, -77, -51, 41, 49, 84, 45, 5, -84, 58, -8, 25, 36, -64, 9, -60, 87, 
  -41, 30, 99, -4, 11, -37, 58, -86, 111, 87, -92, -65, -58, -25, 94, 33, -67, 6, -3, 59, 10, -81, -100, 43, 17, -16, 79, 15, 96, -47, -31, 63, 111, -17, -40, -79, 27, -84, -87, -74, -103, -88, 51, 68, -8, 18, -32, -48, -31, 76, 28, 55, -60, 85, -61, -62, 100, -69, -11, 93, 65, 77, -53, -15, 25, 84, -21, 73, -32, -18, -26, -45, 69, -88, -13, 16, -89, -48, -61, 14, 32, -17, 74, -36, -43, 54, -33, 14, 9, -118, 12, 103, -41, -4, -55, 48, -39, -18, -79, 65, 105, -66, 46, -15, -27, 39, 58, -90, -101, 57, 27, 15, 66, -76, 31, -7, -56, -66, 23, -4, 71, 52, -14, 82, 106, 75, 90, 55, 9, -23, 26, 12, 3, -22, 29, -107, 51, 28, -111, 70, -90, 53, 0, -67, 50, -1, 94, -45, 103, 40, 55, 47, -67, -41, 84, -93, 80, -78, -5, -79, 81, 72, 7, 41, -60, -6, 86, 88, 61, 64, -31, 60, 54, 31, 0, 31, -59, 60, -19, 16, 91, -86, 64, -44, 98, -80, -14, -73, -91, -26, -5, 82, 9, 94, 64, 65, 87, 28, -102, -65, 85, -16, -65, 72, 70, -53, 90, -17, 96, 73, -22, -94, 59, -105, 103, -28, 78, -18, 75, 16, 94, 98, 85, -99, -78, -7, 39, 72, -75, -92, 15, -86, -84, 24, -115, 68, 75, 13, -21, -93, 7, -102, 5, 56, 48, -78, -88, -78, -19, 51, 42, -3, 17, 9, 83, 59, -57, -85, -75, -62, -32, 54, 23, 16, 70, 67, -49, -46, 105, -88, 22, -44, -50, 59, 92, -75, -41, 21, -32, -59, 112, 84, 88, -88, -93, 20, 23, 5, -89, -77, -58, -29, -66, 7, 88, 45, -21, 2, 111, -48, -3, 20, -60, 40, 89, 49, -92, -97, 5, -75, 17, 4, -98, 21, -73, 82, -7, 17, -42, -109, 52, 75, -83, -86, 95, -87, -19, -27, -15, -31, 67, -75, -107, -54, -101, -15, 60, 56, 80, 75, 60, 69, -77, -28, -90, -18, -93, -4, -15, -7, 56, 56, 48, 72, 78, 96, 32, 7, 25, -6, -90, -4, -103, -78, -27, 106, 17, 56, 17, -75, -87, -38, -11, -72, 2, -51, -6, 89, 70, 89, 11, -24, 2, -64, -35, 12, 66, 34, 83, -24, 17, -54, 33, -64, 3, 94, -38, 61, 13, -51, 50, -40, -69, 16, 72, 81, -36, 0, 93, 64, -101, 38, -80, 105, -53, 6, -41, 15, 29, -88, 24, 42, 3, 6, 14, -24, -100, -18, 23, -32, -63, -30, -60, 93, -98, -68, 75, -16, -54, 35, -26, 66, -4, -11, -26, -50, -91, -9, -61, 18, -24, -28, 22, -95, 40, -100, 56, 87, 30, -94, 75, -83, 38, 47, 11, -88, 1, 32, -67, -12, 87, -16, -75, 77, -110, -26, 78, -41, -99, 13, 9, -104, -55, 18, 74, -17, -112, 86, -99, -62, 95, 53, -89, 45, 13, -83, 1, -97, -39, -27, 46, -56, 88, 26, 39, 51, 97, -87, 10, -9, 6, -100, 64, 37, 15, 107, 60, -19, 39, 7, -39, 22, -9, -13, 41, -28, -33, 92, -42, 53, 90, -105, -96, -44, -49, -31, 72, 52, 97, -67, 22, -31, 79, 29, 48, -3, -79, 50, 13, -81, -96, 4, 20, -30, 63, 44, 74, -26, 51, 82, 48, -30, -41, -107, -56, 25, 66, 62, 35, 38, 10, 27, 39, -46, -53, 45, 90, 36, 72, -2, 10, -98, -45, -30, 67, 60, -22, -70, 77, 66, 100, 19, 71, -57, -111, -81, 71, 75, 37, -73, 
  -66, -1, 12, 91, -25, -102, -56, -47, 84, 74, 108, 21, 21, 68, -28, -20, -20, -84, 13, 65, 39, 33, 79, 42, 43, -63, -88, 35, -4, 4, 53, -105, -81, -46, 110, -45, 103, 40, 37, 30, -39, -104, 105, 57, 31, -55, -78, 26, 98, 36, -95, -16, -57, -54, 28, -107, -75, 100, 64, 22, 42, 81, 78, 14, -5, 50, 99, 36, -95, -41, 110, 99, 53, 86, 4, -27, -11, 28, -24, -53, 54, 48, 15, 69, -60, -94, -27, -48, -100, -3, 14, -13, 85, 8, -43, 114, -60, -34, 77, -94, 6, 107, 88, -118, -77, -54, 103, -3, -63, 25, -69, 72, 7, -20, -87, -84, -105, 109, 42, 9, 44, -32, 44, 15, -39, 6, 102, -51, 3, -61, -3, -82, 24, -114, -15, 6, 32, 101, -104, -19, 7, -63, 49, 5, -53, 24, -45, -86, 34, 66, -23, -5, 61, 63, 48, 114, -42, -10, 6, 1, -17, 77, -33, 79, 29, -49, -102, 3, 86, -64, -34, -34, 74, 0, -101, 58, 27, 14, -49, 51, 1, -90, 70, 98, 66, -58, 28, 37, -23, 48, 54, 24, 66, -89, -51, 27, 82, -35, 55, 46, 29, -50, 95, 4, 38, 76, -90, -50, 87, 86, -25, -49, 37, -59, -8, 96, 11, 87, 54, 73, 41, -49, -13, -39, -32, -87, -18, 68, 42, -42, 18, 107, 73, 11, -63, 21, -94, 6, 44, 69, 82, 25, 100, -21, -22, 3, -60, 31, -71, -90, 5, 21, 18, 20, -70, 20, -8, 72, -16, 20, -75, -40, -103, 29, 19, 88, 23, 68, -49, -56, -12, -16, 107, 62, 10, 18, 18, 64, 35, 50, -49, 62, -82, -50, 8, 82, -103, -32, -34, 76, -49, 66, -61, 59, -33, 59, -34, -27, 54, -12, 1, 70, -64, 72, 83, -41, -48, 26, 114, -39, -18, -91, 44, -62, -33, -68, 65, -13, -38, 116, 40, -56, -78, -56, -79, 57, 56, 6, 68, -33, 46, 55, 58, 50, 72, 15, 90, 71, 76, -19, 99, -18, 73, -56, -56, -31, -14, -97, -78, -22, -5, -7, 36, -75, -43, -72, -35, 93, 4, -87, 2, 37, -64, 86, 65, -93, 34, -14, -63, -99, 45, -82, 25, -63, 107, 39, 96, -56, 32, -16, 32, -29, 103, -98, -66, 53, 64, -80, 32, 88, -24, -78, -57, 13, 48, -2, -67, 86, 58, 12, 37, 56, -72, 25, -63, -32, -91, -76, 72, -48, 0, 31, 70, 60, -11, 88, -93, -77, -93, -29, -93, -66, -67, -58, 44, -98, -8, 98, -69, -37, 67, -109, 75, -43, -10, -55, 74, 86, 34, 8, 68, 9, 4, -51, 41, -50, 32, -83, 101, -104, 75, 63, 76, 22, 81, 53, -12, -92, 20, 35, -5, -36, -23, 36, 32, -73, 39, 14, 48, -66, 14, -43, 53, 28, -52, -49, 40, -57, 3, 22, -106, -103, -60, 76, 73, -31, -100, -87, 29, -40, -35, 56, -22, 31, -116, -84, -66, -93, -37, 52, 39, 35, -2, 16, -94, 28, 35, -31, -75, 72, -16, 89, -97, 44, 6, 105, -65, 36, -52, -88, 19, -36, -31, -9, -53, -54, -33, -29, 58, -8, 42, -57, -105, 46, -52, 65, 54, 6, -30, -51, 25, -38, 33, 94, 99, 60, -57, 70, -29, 5, 66, 48, -9, 72, -13, 40, 81, 99, -39, -57, 48, 20, 33, 28, -86, 64, -55, -89, -47, 48, 75, 54, 64, -65, 79, 73, -106, 66, -62, 43, 55, -22, 25, -38, 20, 40, -83, 0, 40, -95, 83, -66, 25, 8, -38, -42, 70, -86, 78, 63, 
  33, 100, 61, -75, -76, -43, -47, 10, -24, 67, 29, -82, -45, -44, 93, 16, -40, -12, -45, -84, -67, -8, -83, -61, 98, 90, 80, -45, -13, -91, 5, -84, -57, -11, 86, 40, 2, 49, 73, -9, -83, 8, 111, -31, 31, 68, 68, -100, 98, 11, -58, -42, 88, 24, -66, -39, 79, 65, -18, -24, -65, 53, 71, 77, 17, 54, 47, 104, -78, -3, -96, -100, -88, 20, -74, 91, 53, -84, -62, -30, -37, -3, 96, -25, -92, 55, -61, -48, -70, -24, 63, -85, -41, 32, -28, 94, 38, 53, 20, -30, -76, -79, 64, -41, -72, 66, -29, -45, -88, 76, -21, -67, -29, 85, -14, -79, -61, 97, -68, -31, -76, -21, 28, 3, -6, 77, 24, -72, -71, -86, 57, 22, 108, -40, 10, 14, 90, -59, -7, 39, -69, 86, 16, 17, 102, 95, 9, -79, 42, -10, 50, 5, 59, -15, 58, 22, 32, 10, 80, 76, -115, -81, 78, 63, 46, -41, 88, 87, 22, -103, 56, -3, 83, -20, 22, 49, -78, 18, -96, -44, -32, -110, -23, 46, -90, -37, -36, 21, 29, 84, 51, 48, 68, -101, 14, 77, -14, -53, -54, -5, -4, -77, -14, 13, -83, 36, 12, -77, 30, 70, -36, -84, 90, -32, 80, 71, 59, -54, -6, 120, 70, -102, -18, 20, -69, 30, -91, 87, 24, 23, -15, 103, 24, 40, -57, 42, 81, -34, -28, 98, 58, -48, 42, -27, 42, 61, 93, -102, 50, 6, 64, 76, 69, 10, -10, 17, -13, -55, -12, -55, -78, -67, 80, -34, -62, -71, 116, 55, -24, -14, 50, -83, 75, -1, -4, -78, -23, -99, -32, 15, -8, 116, 87, -93, 108, 102, -74, -16, -16, 20, 32, 58, 61, 52, 31, -74, 89, -20, -6, -56, 11, 24, 55, -63, 56, -9, 47, 72, -17, 18, -68, -26, 45, -80, -78, 96, -2, 53, -29, 36, 75, 78, 53, 82, -93, -65, 11, -20, 9, -20, 49, 99, -84, -88, 61, 3, -23, -96, 90, 0, 103, -4, 101, 49, 63, 66, 0, 79, 0, 77, -91, -47, -39, -41, -81, -61, 40, 5, -53, -16, 54, 5, -7, -31, 60, -45, 61, -85, 13, 3, 37, 9, 49, 70, -93, -102, -67, 52, 1, -35, -79, 78, -15, -40, -2, -40, 4, 11, -89, 85, 21, -70, 29, -76, 13, 52, 97, -49, 3, -82, 25, 47, -78, 96, 90, -67, 22, -43, 58, 52, -31, 75, -73, -30, 66, -35, -90, -75, 43, -103, -64, 1, 21, -33, 10, -71, -80, -42, 39, -36, -72, -105, -96, 64, 62, -13, 106, -96, -73, -43, 2, -23, 50, 49, -75, 46, 77, 44, 92, 85, 98, 87, -9, 3, 8, -24, 9, -29, 11, -53, -98, -40, -60, 8, 65, -71, 69, 40, -19, 13, -84, -12, 62, -17, -8, 32, -44, -60, 93, -98, 8, 41, -2, -88, -77, 48, -22, -23, -38, -38, 22, -59, 83, 9, -45, -61, 85, 41, 81, -60, -64, -106, -56, -62, 6, 35, 34, 69, 104, 5, -67, -80, -7, -84, 11, 0, 101, 52, 85, -11, -31, -84, 84, -78, 8, -36, 6, 25, -13, -96, 61, 59, 91, 46, -76, 24, -43, -85, -73, 23, -41, 31, 68, 96, -39, -45, 79, -71, 75, 63, -88, -38, -97, -58, -47, -91, -16, -33, 8, -74, 11, 67, 10, 14, 98, -86, -16, 60, -78, -106, -23, 78, 22, 35, 49, 83, -58, -41, 38, 94, 36, -6, 49, -56, 42, -103, 52, 32, -59, -73, 2, 58, -60, 66, -4, 84, 64, -50, -30, -104, 
  -117, 22, 14, -27, -28, 0, 74, -62, 46, -19, -22, 25, -93, -70, 32, -104, -79, 106, 88, -25, -43, 97, 42, -19, -23, 23, 85, -73, -44, -54, 70, -43, -10, 37, -40, -24, -101, 21, -21, -107, 19, 81, 27, 60, -31, 1, 3, -42, -89, 82, -71, -53, 70, 96, -7, -77, -14, 72, 29, 32, 83, -6, -8, -91, -12, 12, -48, 60, -20, 3, 104, 24, -109, 7, 43, -67, -75, -88, 59, 34, 27, -26, -35, -26, 56, 39, 6, -73, 93, -58, -57, 1, -6, -102, 64, 69, -78, -99, 33, 22, 37, -100, -103, -41, -85, 19, 37, -38, -1, -13, 53, 91, -54, 73, 37, -86, -38, -71, 44, -18, 50, -79, -94, 29, -65, -95, -90, -10, -4, -72, 81, 67, -44, -44, 100, 95, -59, 45, -106, -54, 18, 16, 91, 19, -74, -70, -95, 76, 21, 0, -43, -19, -47, 79, 73, 39, 56, -81, -83, 27, 49, -107, 52, -68, 7, 23, 82, -37, 77, -84, -55, 34, -68, 90, -81, -16, -82, -36, 37, 80, -76, -96, 82, -40, -70, -103, -52, -62, 73, -110, -44, 93, -39, 97, -20, 26, 62, 47, -24, 29, 45, -91, -52, -91, 57, 53, 18, -51, 96, -68, -95, 25, 62, 103, 68, -85, -11, 23, -103, 87, -35, -71, 7, -25, 61, 37, 36, -75, 54, 38, 28, 97, 52, -79, -68, 54, -14, -16, -73, -80, -82, -9, 3, -37, 100, -104, 60, 25, 0, -82, -83, 45, -50, 62, -78, 70, 55, -45, 66, 82, 19, 44, -45, 76, -4, -49, 9, 17, 89, -57, 90, -81, -67, -45, 51, -11, 57, 9, 19, -63, 63, 73, 95, 69, -55, 46, -41, -88, 73, 11, -42, -3, 10, -22, -69, -56, 96, 72, 38, 4, 30, 19, -107, -36, -39, 20, 23, 1, -14, 84, 14, -102, 77, 47, 86, 101, -78, 60, 13, 19, 71, -69, 23, -19, 74, 71, -95, 56, -42, 61, -73, 65, -61, 59, -44, 9, -59, 26, 85, 94, -5, -3, 17, 38, 49, -63, -29, 51, -27, -100, -24, -89, 1, -45, 72, -67, -67, -106, -72, -54, -5, -37, -11, 11, -58, 8, 55, -97, 13, 38, -27, 21, 28, -62, 20, 89, 29, 32, 32, 62, 5, -46, 68, -76, 4, -83, 69, -46, -75, 77, 31, 10, -85, 63, 33, -32, -56, -67, -22, 37, -50, 19, 53, 39, 65, 75, -2, 79, 68, -90, 62, 49, 15, -79, 6, 81, -85, 93, -57, -4, -11, -43, -37, -95, -54, 36, 34, -8, -26, 36, 85, 55, -63, -62, -35, 10, 78, 28, 2, 19, -91, -58, 62, 24, -72, 43, -19, 31, -77, -83, 27, -33, -83, -81, -80, -11, 4, -82, -24, 71, 93, -62, 13, 4, 51, 66, -23, -71, -24, 94, 99, 35, 48, 59, -84, 44, 5, 10, -103, 28, -52, -25, 28, 85, -74, -50, 17, 34, -35, 35, -15, 8, -57, 32, -97, -17, 28, 106, -69, 20, 30, 79, -85, 30, 64, 85, 98, 46, 97, -72, 82, -49, 64, -98, 27, 85, 84, -23, 18, 58, 78, -32, -47, 5, 55, 4, 21, 71, -36, 61, 22, 26, -12, 8, 15, 80, -20, 49, -72, -47, 2, 82, 48, -104, -90, -17, -89, -86, -13, 36, 20, 46, 85, 68, -67, -29, -91, 33, 59, -91, -70, -4, -68, 13, -15, -22, -66, -81, -36, 34, -36, -82, -9, -88, -32, -55, -44, 70, 28, -55, 83, 9, -11, -9, 33, -88, -47, 98, 3, -27, 75, 24, 80, -59, 22, 10, 72, 70, -55, -5, 
  -16, 48, 79, 26, -23, -48, 106, 37, -91, -39, -21, -49, 73, 110, -3, -73, 26, 52, -53, 57, -63, 42, -39, 79, -33, -46, 23, -93, -16, 34, -90, -56, -56, 21, 10, 101, 87, 34, -37, -90, 59, -13, 57, 120, 44, -20, 59, -38, 42, 64, -63, 22, 39, -81, -15, -44, -4, 49, -39, -100, -24, -48, 84, -17, 51, 87, 88, -44, 74, 66, 48, -92, 64, 117, -103, -58, -28, 20, 87, 11, -84, -65, 14, 3, -38, 102, -64, 86, 72, 1, 78, 38, -115, 6, 41, -70, -20, -11, -113, 14, 24, 38, 42, 82, 87, 54, -70, -8, -63, 36, -18, -9, 57, 23, 110, 68, -53, 16, 55, -48, 96, -97, 61, -92, -13, 66, 51, 68, -29, -84, 18, 67, 17, -70, -103, -58, 74, -16, 30, -9, -11, 50, 69, -79, -79, -71, -16, -100, 21, -40, 49, -35, 28, 100, -99, -116, 88, -54, -52, -99, 14, 83, 35, 85, 57, 73, 38, -98, 101, 34, 83, 30, -114, 22, -27, 11, 86, 49, -111, 63, 71, -59, -82, -91, 42, -93, 81, -64, 15, 51, -7, -33, -36, -106, 93, 103, -94, -28, 51, 22, -18, -77, 20, -77, 103, -61, 49, -23, 83, -45, 77, -11, 95, 2, -44, -28, 19, 94, 49, -74, -119, 73, -14, -69, 42, -52, 19, -57, -16, -34, 69, -24, -102, 25, 49, -19, -90, 52, 1, -7, 27, -9, 85, 8, -72, -5, 3, -93, 15, -58, -6, -78, -22, 108, -1, -65, 63, -59, -77, 102, 51, -55, -41, -45, -60, 93, 69, -89, 7, 19, -93, 16, -62, -19, -55, 102, 10, 56, -24, 90, -77, 53, -22, 55, 68, 29, 19, -6, -95, 25, 26, -75, 2, 6, 24, 13, -60, 26, -13, 32, 52, -10, -5, -43, -60, 89, 40, -22, -71, -20, 89, -88, 92, 37, 13, 68, -82, 4, -20, 63, -40, 0, 94, 47, 87, 56, 10, -56, 105, 4, -21, -77, -7, -41, 98, 53, 94, 82, -4, 19, -76, -80, 90, 87, -50, 78, -8, 81, 9, -96, -47, 33, -86, -4, -59, 93, 82, -28, -59, -92, 99, 35, 107, -79, 93, 24, 0, -85, 35, 3, 21, -106, -3, 72, 33, -20, -28, -54, 95, 34, -81, 75, 65, 98, 62, -66, -70, -18, -4, -1, -15, 35, 46, 42, 58, 63, -102, -27, -6, 56, -61, -97, -49, 66, 87, -99, -63, -89, -50, 3, -94, 7, 42, 12, -65, 90, 70, -83, 63, -48, 81, -10, -96, -4, 56, 54, -50, 102, 31, -10, 61, 51, -37, -86, 5, 51, 41, -29, -86, -69, 64, -76, 73, 61, 42, -86, -5, 25, -11, 75, 43, -93, -92, -104, -57, 63, 99, -52, 3, 62, 44, 50, 51, -41, 26, -108, -83, -36, 83, 12, 104, -15, 103, 21, -80, -42, 105, -42, 54, -16, 62, -64, 59, -57, -47, 36, -30, 78, -20, 21, -77, -39, 73, -6, -19, 78, -50, -119, 111, -36, -57, 83, -30, -16, -22, -105, 81, 18, -101, -48, 90, -98, 76, 88, 19, -11, -46, 57, -75, 29, 96, -47, -49, 36, -12, -82, -37, 63, 34, 2, -45, 40, 33, 84, -21, -67, -62, 84, -18, 46, 47, -31, -65, 16, 12, 69, -5, -61, 31, 64, -2, -101, -46, 16, -82, 69, 87, 69, -12, 7, 51, -87, 16, 75, 11, -45, 3, 79, 66, 84, 7, -48, 106, 49, 9, 90, -75, -84, 52, 10, 5, 57, -61, 44, -60, 60, 85, 2, 18, 5, -38, -81, -8, 19, -70, -13, 25, 46, 43, -9, 
  45, 86, 37, -24, -54, -38, -59, -7, 64, 53, -93, -3, 21, -60, -72, 24, -16, -98, 9, 21, 58, 1, 79, -39, 30, -22, 28, 60, 84, 98, -20, 82, 42, 43, -111, 91, 14, -66, -15, -102, 73, 29, -90, 39, -82, 59, -92, 47, -21, 56, 73, -74, -9, -4, 10, 44, -43, -60, -47, 96, -28, -5, -7, 7, -51, 84, -56, -94, 82, 20, -5, -71, -40, -69, -10, 75, -36, -5, -47, -19, 73, 63, 49, -102, -20, 39, 41, 40, -85, -21, 19, 44, 36, -76, -10, 82, -37, -23, -58, -7, 42, 38, 12, 57, -13, -106, 45, 86, 66, -93, -1, 23, 61, -54, -26, -85, 14, 56, 58, -10, -94, 49, -5, -52, -51, -7, 54, -39, -94, 81, 96, 36, -104, -63, 77, 66, 57, -33, 18, -32, 3, 28, 12, -6, -66, 41, -102, -88, 15, 64, 65, 37, -13, 70, 71, 63, -66, -64, 65, 38, 91, -83, 13, -59, 47, -21, 92, 75, -58, 46, 40, -4, 31, -68, 67, 58, 24, 72, -36, 17, -69, 84, 8, 93, 109, 77, -108, 68, 24, -64, 74, 82, -104, -18, 43, -12, -58, -20, 56, -54, 52, -86, 33, 78, 13, -42, -63, 76, -19, -75, -94, 1, -27, -64, -72, 43, 1, 62, -44, -93, 87, -49, 61, -14, 5, 25, 52, 102, -35, -71, -44, -37, -94, -47, -40, 95, -66, -34, 22, -81, 40, 5, 44, 88, 87, 34, 41, 58, 34, -98, -64, -28, -33, 9, -61, -99, -22, 46, 99, -54, 3, -105, 12, 60, 76, -6, 52, -83, 42, -76, -98, -105, -42, -12, -9, 44, 75, -43, -37, -9, -44, -95, -41, 18, 28, 74, -49, 65, 18, 23, 96, -40, -65, 80, -31, 87, -32, -38, -32, 72, -99, -82, 98, -102, -72, 56, 35, 28, 95, 52, 89, -85, 64, -5, -93, -9, 102, -54, -34, -75, 89, 95, -99, -7, -2, 83, -49, -96, -28, 71, 52, 3, 80, 16, 21, 92, -99, -72, 64, -24, 67, 68, 81, -2, 36, -43, 97, 96, -23, -96, 25, -60, -83, 16, -63, -73, 82, 87, 41, -15, 103, -96, -96, 98, 88, -50, 94, 29, -33, 74, -53, 40, -79, -45, -103, -60, 88, 40, -80, -26, 33, -5, -59, -24, -61, -97, -95, -78, -33, 53, 62, 11, -36, 38, -63, -6, 105, 57, -8, -82, -57, 74, 32, -30, 91, 61, 26, 84, 41, 84, 37, 3, -7, 20, 43, 0, 35, 33, -16, 34, -85, 67, 8, -7, -91, 53, 76, -12, -16, 91, -9, -25, 11, -105, -41, -18, -97, 83, -33, 91, -51, 0, -69, -100, 8, -94, 13, -85, 60, 94, 68, -64, -93, 23, -5, 17, -32, -45, 59, 45, 95, 8, 72, -22, -80, -57, -87, -82, -35, 35, -42, 105, -80, 22, -87, -56, -95, -37, 32, 96, -8, 85, -94, 46, -93, -76, -15, 62, 85, 51, -107, -56, -100, -49, -78, 47, -16, -99, -77, -33, 89, 28, 5, 36, 39, -15, -13, -73, 5, 79, -51, -51, -2, -89, -25, -22, 82, -12, -69, 55, 41, 37, 1, -54, 4, -94, -63, 52, -78, 7, -71, -21, -90, 64, -33, 60, 29, 101, 6, -110, -43, -21, -43, 102, -103, 3, 91, -109, -35, -90, 66, 82, -91, 51, -5, 19, -105, 42, -39, -24, -12, 50, 78, 89, 79, 20, -89, 48, -7, -10, 72, 76, 13, 20, -5, -61, -50, -63, -50, -26, 15, 93, -104, -114, 73, 88, -12, -40, 58, -59, 52, 20, 43, 44, -71, -34, 9, -96, -97, -80, 
  -60, 26, -83, -36, 51, -114, 44, 20, 94, 42, 41, 47, -13, -58, -40, 12, 12, -92, -99, 89, 25, 107, -15, 5, 91, -21, -60, 13, -4, -58, -26, 38, 89, -49, 38, -14, 90, -64, 69, -74, 53, 83, -83, 46, -31, 68, 87, -11, 85, 80, -100, 8, 35, -75, -56, 35, 58, 82, -7, -78, 82, -29, -27, 68, 9, 105, -53, -77, 23, 28, -63, 37, -3, -59, -57, 87, 3, -61, -67, -25, -89, -12, -72, 53, 38, 9, -26, -54, 53, -43, -40, 62, 10, 112, -62, 110, -89, -25, 12, 14, 17, 12, -89, 16, 56, 58, -13, 44, 48, -24, -2, -47, -84, -9, -77, -72, -15, 91, 9, 91, 7, -79, 36, 48, -88, 21, -38, 104, -91, 108, -34, 68, 15, 21, 89, 63, -82, 94, 47, 26, 42, 52, -42, 81, -80, 5, -26, 24, 33, 36, -68, -18, 9, 94, 96, 91, -95, 75, 2, 7, -32, -90, -65, 6, -78, 85, 97, 5, -49, -96, -77, 57, 98, -97, -25, 48, -59, -60, 69, -66, 62, 17, 18, 79, -9, 39, 26, 12, 19, 19, -80, -100, -29, -21, 39, 46, -6, 77, 38, -16, 11, -8, -15, -9, -57, -21, -13, 30, -18, 68, 74, -69, -81, 89, -96, 8, 9, 21, 90, -60, -9, 21, -111, 82, -95, -87, -42, -27, 43, 18, 78, 3, -6, 43, 38, -48, 13, 17, 49, 18, 31, -18, -28, 62, -57, -38, 79, 28, 25, 101, -43, -63, 83, 35, -62, 87, -15, 14, 31, -100, 22, 53, -4, 86, 41, 79, -57, -11, 35, 89, 55, 96, -48, -79, 35, 43, 19, 78, -86, -30, 14, 58, 7, 67, -90, -14, 24, -80, 38, 64, 30, 93, 65, 16, -45, -53, -18, -41, -75, -46, -15, 34, 10, -29, -3, 23, -32, 65, 68, 36, -67, -17, 97, -26, -68, 0, -38, 41, -99, -32, 33, -93, 54, 33, -44, -4, 108, -86, -82, -52, -24, 104, -39, 86, -20, 26, 8, 23, -68, 46, -2, -54, 5, -95, 37, 75, 63, 46, -66, 100, -81, -57, 2, -85, 82, 59, -100, 1, -99, -22, 76, 3, 42, -25, -70, -36, 63, -45, 39, 33, 83, -13, -104, -24, 20, -64, -63, -30, -47, -1, 101, -90, 91, -98, -87, -41, 80, -13, 34, 43, -11, 102, -96, 58, 62, -42, 2, -5, 50, -34, 8, 86, 60, 2, -40, -71, -47, -64, -20, -58, 65, 37, 70, 75, 85, 25, -21, -60, 34, -8, -87, 76, -54, 9, 9, 81, 74, -33, 57, -37, 72, -41, 85, -20, 30, -84, -55, 9, 19, 34, -11, 21, 97, -37, 34, -20, -89, -42, 56, 80, -49, -57, 75, 73, 32, -17, -66, 83, -66, 86, -18, -8, 82, 19, 65, -10, -43, -82, -94, -39, 109, -86, -65, -72, 47, -15, -14, 69, -92, 87, -23, 108, -38, 19, -71, 28, 10, -43, -9, 40, 67, -41, -4, -43, -73, -68, -59, -81, 75, 21, 68, -3, 32, 47, -110, -29, -76, -89, -98, 22, 69, 1, 30, 49, -38, 80, 72, -37, -59, 37, 24, 16, -32, -60, 90, 25, -82, 58, -22, 52, 5, -38, 21, -26, -90, 106, 18, 51, 97, 34, 49, -96, 64, -25, -47, -69, -76, 62, 74, 25, 54, 8, 17, 57, 69, -74, -21, 42, -22, -34, 58, 84, 52, -53, -103, -86, -3, 30, -89, -74, -98, -90, -85, 95, 17, -97, -39, 88, -67, -44, -29, -15, 15, 52, 89, -80, -3, -42, -58, 88, -9, -45, 47, -41, -58, -36, 8, 82, 89, 5, 
  106, 43, 60, -64, 48, -18, 13, -19, -12, 80, 4, -9, 56, -28, 42, -20, -87, -19, 56, 38, 11, -47, 7, 74, -61, -2, -82, -11, 50, -104, -11, 29, -44, -13, -98, -65, 75, 34, -28, 46, 64, -57, 59, 2, 0, -76, 74, -15, -66, 73, 84, 92, 92, 57, 67, 82, -72, -77, 42, -1, 53, 63, -53, -82, 36, 36, 99, 23, -13, -16, 47, 8, 84, 102, 17, 99, 69, 57, 36, 28, -6, 97, -13, -61, 50, -70, -26, 76, -45, -66, 53, 13, 98, -29, -40, -85, 96, 26, 61, -106, -44, 30, -31, -74, 49, -54, -119, 0, 7, 52, 5, 51, -95, 64, -60, 82, -98, 92, 51, -38, 86, 72, -8, -43, -51, -16, 56, -94, 102, -6, -80, -48, -38, 30, 57, -20, -61, 60, -81, 53, 6, 104, -58, -101, 62, 61, 56, -22, 48, -26, 66, 47, -21, 85, 44, -75, 20, 69, -6, -21, 82, 101, -65, 24, 105, 58, -29, -2, -64, -101, 78, 13, -17, 101, 21, -78, 31, 4, -67, -83, 13, 88, -17, 98, -109, 11, 2, -17, 56, 24, -51, 19, -39, -90, -35, 93, 54, 87, 8, -20, -29, -26, -94, 53, -35, 62, -79, -45, -72, -1, -58, 1, -50, 108, 15, -77, 37, 13, 110, 78, -66, -10, -9, -25, 5, 87, -87, -88, 91, 68, -32, -3, -12, 42, -39, -27, 45, 98, 18, -99, 35, 105, 114, 66, -53, 28, 99, -6, 37, 88, -39, -82, -3, -97, 32, 114, 48, 90, -84, -67, 31, 46, -70, 29, -6, -6, -54, 32, -24, -91, 60, 112, 106, -88, 80, -12, 75, -40, -57, 59, 61, 3, 83, 52, 45, 63, -13, -83, 70, -69, 72, -43, 81, 8, 12, 77, 102, 42, -30, 75, -16, -19, 30, -21, 4, 54, 79, -76, 79, 50, 94, -2, -31, 102, -66, -64, 88, -14, -17, 18, -87, 20, 48, -2, -3, -86, 41, -42, -89, 50, -74, -86, 80, 97, -28, -90, 28, 77, 12, 49, -87, -2, -95, -31, -2, 97, 80, -47, -6, 27, 57, 36, -60, -34, -103, 33, -16, -27, 31, 65, -90, 91, 37, -41, 20, -41, 87, -58, 11, -81, -55, -13, -68, 13, 74, 58, -59, -69, 84, -95, -93, -1, -4, -71, -5, -26, 79, 36, 101, 29, 67, 81, 90, -11, -31, 57, -48, 20, 57, 2, 55, -98, -26, -59, -36, -109, 54, 101, 24, 78, -82, -84, 23, -15, -72, 20, -1, -37, -96, -23, 18, -60, -86, 28, -17, 19, 37, -84, -62, 77, -78, 60, -106, 59, -5, 9, 79, -9, 96, 12, 41, -32, -12, -57, -68, 91, 93, -82, -15, -92, -75, 38, -35, -38, 71, 45, -69, -45, 48, 84, 83, -17, -38, 6, 96, -52, -8, 76, 24, -16, -11, 23, -67, -61, -8, -26, 70, 25, 25, -64, -75, -54, 115, -81, -57, -54, -28, -59, 21, 92, 63, 18, -22, -104, -88, 47, -56, 36, -26, 35, -25, -99, 24, 105, 75, -35, 103, -40, 103, 40, 12, 11, -84, 46, 5, 99, 56, -19, 88, 71, 55, -65, 105, -78, -91, -29, -85, -81, -52, 55, 45, 19, 42, 33, 12, 49, -56, 100, 92, 90, -51, 61, 63, -52, 11, -66, -17, 74, -67, -41, -36, 1, -55, 24, 92, 88, -83, -101, 14, -54, 40, -93, -43, 84, -53, 49, -39, 45, -63, -90, -39, -84, 20, 66, 26, 80, -51, 60, -78, 11, 7, 71, 25, 72, -37, -39, 57, -77, 34, 23, -69, -58, 62, 90, 108, 42, 46, -74, 91, 82, 
  91, 89, -71, -46, -94, -83, -95, 70, -42, 21, -106, 78, -6, 91, 103, 50, 19, -58, 89, 3, 102, 32, 80, -88, -87, -2, 37, -18, -56, 89, 79, 90, 83, 5, -34, 7, 17, 68, 56, -18, 64, -91, -75, -64, 22, 5, -67, -92, 21, -43, 106, -91, 31, 43, -25, 67, 59, -26, 52, -25, 68, -80, -2, -69, 62, 91, -73, -15, 111, 23, 25, 70, 48, 43, -52, 82, -19, 64, -54, 39, 8, 31, -24, -30, -54, -85, -78, -23, 42, -16, -105, -25, 84, -64, -40, 28, -84, 58, -32, 97, -36, 61, -20, 94, -42, 62, 114, 53, -109, 103, 108, 25, 66, -113, 67, -73, -82, 50, -51, 66, 20, 60, -70, -106, 54, -6, -29, 62, 72, 14, -87, 3, -67, -8, 9, 75, -72, -34, 93, -62, 10, -87, 30, -43, 59, 68, 24, -38, 18, -107, -13, -83, -109, -59, -68, 32, -19, -11, 28, -40, -75, -85, 80, 109, -39, 14, -39, -38, -95, 59, 81, 41, 45, 31, 86, 13, -24, -40, -32, 10, 83, -101, 42, 55, 105, 42, -25, -33, -8, -98, -91, -14, -5, -42, 10, 3, -64, -19, -45, 37, -47, -66, 9, 30, -87, -91, 80, 10, -48, 75, -17, -53, 32, 38, -43, 75, 7, -12, -37, -23, -25, -74, -67, -29, -62, -95, 16, -24, -95, -48, 54, 17, 53, 49, 75, -11, 41, 72, -29, -72, 36, 9, 76, -44, -73, 35, -28, -42, -17, -27, -88, -109, -96, -48, 78, 11, 89, -89, -52, 42, 53, -95, 14, 20, -64, -19, -63, -30, -8, -63, 13, 90, 12, 76, 54, -43, -48, 11, 59, 33, 46, 55, 53, -96, -40, 82, -55, -11, 3, -54, 21, -21, -9, 2, 47, 57, -104, -49, -54, 29, -93, 54, -36, 88, 51, -104, 4, -12, -33, 15, -12, 71, 83, -80, -8, -40, 51, 95, 56, 94, 61, -3, 1, -37, 1, 98, -52, -53, -48, -98, 28, -11, 65, -91, 43, 82, -51, 54, -58, 25, -68, -43, -89, -64, -32, -58, -97, 38, -50, 12, 2, -87, -96, 44, 77, -27, 19, 50, 64, 92, 101, -14, 58, -32, -59, 33, -3, -19, 63, -69, 91, -85, -22, 52, 75, 108, 12, -43, -86, 39, -98, -42, -93, 23, -22, 91, -39, 22, -7, -101, 65, -11, 25, -36, 5, -18, -85, -88, 55, 110, 47, 19, -38, -73, -41, -4, 70, 32, -88, -71, -3, 22, -27, -102, -44, 36, -43, 38, -105, -19, 53, 33, 57, -60, 96, -31, 59, -84, -19, 23, 49, 84, -3, 56, -45, 52, -81, 18, -82, 9, 84, 7, -26, 12, 45, -56, -78, 45, -70, 87, 91, 17, 10, -84, 13, -65, 31, -82, 71, -84, -71, -50, 88, -66, 24, 47, -91, 57, -41, -45, -2, -61, 50, 103, 12, 64, -45, 34, -44, 109, 45, 68, 59, 20, 75, -14, -103, -9, 10, -73, 43, 96, 27, -85, -1, 17, 56, -84, 76, -63, -79, 42, 86, 115, -7, 101, -42, 17, 37, -50, -24, -12, 57, 82, 15, 52, -12, 16, 9, -59, -92, -35, -47, 56, -42, 95, 20, -29, -79, 102, 80, -34, -26, -76, -20, -25, -33, 43, 86, -72, -31, 31, -43, 94, 98, 56, 79, 15, -73, -78, -97, -53, -17, 36, -84, -50, -21, 63, 44, 27, -89, 37, -40, 74, -55, -16, 33, -96, 65, -37, 11, 107, -58, -3, -104, 99, -30, -58, -46, -78, 11, 113, 1, 7, -54, 6, 8, -86, 91, 88, -12, -25, -58, 97, 42, 19, -25, 87, -18, 60, 
  44, 48, -86, -53, -22, -11, 94, 1, 37, -1, -90, 23, 89, -68, 33, 64, 83, -87, 104, 59, -30, -19, -28, -10, -90, 69, 44, 33, -47, -84, 13, -68, 99, 28, 1, -44, 36, -47, -8, 38, -43, 79, -22, 51, 92, 41, 4, 58, -46, -68, 17, -36, 88, 96, -24, 98, -33, 66, 96, -52, -57, -40, -78, 15, -4, -25, 90, 10, -84, 75, -42, 16, -36, 7, 31, -107, -63, -74, -58, -37, -83, -96, -29, -50, 101, 87, 94, 52, -68, 24, 88, 29, -18, -10, 49, -8, -79, 13, 53, 50, -16, -91, -54, 21, -67, 5, -43, -12, 89, 94, 41, -3, 93, -20, -82, 66, -35, 74, 2, -84, -4, 93, 104, 29, 81, -9, 63, -85, -42, 33, 45, 89, 80, -16, -87, -59, -8, -49, -78, 108, -89, -115, -96, 50, 11, 24, 77, -62, 17, -19, 1, 40, 38, 82, 32, 43, 85, -53, 22, 82, -9, 39, 93, 94, -89, -1, 57, -96, 98, -11, -27, -89, 73, -67, -11, -36, 28, 55, -78, 32, -94, 94, -27, -88, -56, -110, -104, 76, -109, 42, -46, -28, 28, -89, -104, 83, -75, 41, -77, -58, -104, 41, 45, 85, 24, -31, -17, -96, 92, -74, -22, 55, -58, 12, 58, -109, 34, 71, 63, 35, -9, -1, 82, 23, -35, -54, -51, 18, 33, 29, 9, -65, -32, -31, -44, 43, -93, 83, -10, -21, 43, -8, -100, 41, 10, 3, -2, 40, 75, 97, -64, -80, 82, 78, -5, 81, -37, -102, 29, -36, -82, -100, 7, 60, -35, -31, 76, 30, 57, 23, 84, -70, 51, 74, 12, -8, 34, 35, 99, -54, -72, 38, 56, -41, -88, -57, -99, -27, 31, -73, -65, 69, 79, -65, -63, -84, 70, -15, -45, -39, 47, -93, 100, 70, -10, 24, -27, -117, 61, 6, -102, 58, 53, -6, -41, -19, -94, 53, -57, -100, -71, -13, -78, 95, -50, -54, -66, -24, -96, -84, -89, 61, 4, 13, 35, -63, 60, -97, 74, -13, 10, 61, -21, 70, 85, 57, 91, 106, -16, -56, -21, -82, -20, -85, 17, 63, 89, 48, 50, -46, 46, -6, 111, -48, 22, 81, 76, 5, -45, 86, -55, 27, 88, 58, 63, 97, -67, -47, -68, -14, -26, 28, 56, -49, -30, 105, 24, 86, 32, 59, 70, 72, 76, -1, 75, -35, 89, -32, 81, 65, 15, -14, -67, -8, 31, -98, -26, 7, -57, 105, -93, -50, 87, 46, 89, 48, -91, -48, 23, -8, 39, 10, -38, 63, -37, 72, -36, -62, 93, 7, -46, -5, 46, -1, 60, -6, 24, 59, -26, 50, -9, -13, -50, -39, -37, -7, 76, 78, 72, -73, 48, 59, -54, -65, 87, 27, 45, 30, -40, 16, -37, -116, 43, -49, 26, 75, -88, 80, -69, -82, 67, -17, 64, 53, -69, -18, -30, -85, 23, -22, 40, 44, 69, -24, 19, -90, -98, -94, 88, 19, -81, -112, -58, 69, 94, -54, -40, -31, -51, 5, 96, -6, -22, -14, 48, -82, -14, 100, -112, 79, -73, -116, -10, 34, -9, 19, 90, 12, 27, 17, 89, -44, -93, -19, 72, 40, -4, -114, -72, 44, 82, 62, -62, -65, -80, -122, -4, -68, -95, -51, 18, -12, -68, -34, 44, -30, 35, 37, 88, -19, 89, 74, 69, -40, -25, 48, 18, 95, -28, 45, 100, 12, 71, -57, -72, -40, 114, -48, -109, 35, -76, -10, 107, 57, -33, -10, -94, -16, 53, -98, -88, 34, 16, 1, -38, 19, -62, 22, -50, 28, 33, 55, -105, -68, -48, 37, -21, -85, -37, 61, 
  14, -9, -20, -14, 92, -55, -82, 55, -79, 68, -43, -70, 71, 97, -45, -43, 85, 53, 18, 64, -86, 46, 7, -65, -73, 10, -33, 96, -88, -10, -27, -9, -90, -105, 60, 110, 28, -33, 31, 99, 8, -87, -82, -76, -53, -80, -52, 59, 35, -38, 6, 50, 62, 73, -80, -106, 43, 6, -41, 79, 45, -22, 8, -18, 88, 8, -68, 31, 11, -72, -65, 41, -5, -11, 9, 21, -22, -69, 17, 11, -103, -52, 59, 109, -66, 15, -64, 49, -27, 89, 40, -94, 15, -60, -62, -62, 55, 21, 99, 11, 9, -88, 51, -46, 89, -4, -77, 48, -45, 47, 7, 12, 15, 5, -64, -64, -70, 63, -24, 12, -87, 20, -67, -42, -69, 91, 86, 87, -15, 4, 86, 64, 77, 39, 46, -5, -80, 87, 53, 67, -59, -63, -28, -95, 11, 59, -44, 68, -34, 58, -85, 78, 106, 36, 60, -47, -79, 75, 77, -21, -83, -42, -99, -73, 48, -38, -1, -64, -37, 0, -29, 25, 53, 98, -96, -30, 69, -48, -101, -68, 41, -71, -91, -91, 13, 51, 11, -97, -82, 23, 68, 57, 76, -61, -10, -22, -23, 46, 43, -83, 46, 91, 44, 55, 97, -59, 56, -103, 74, -50, 49, 40, 19, -10, 7, -93, -96, -47, 90, 65, -50, 98, -58, 98, -53, -8, -2, 64, -83, -78, 111, 3, 11, -11, -76, -24, -51, -62, -35, -95, -58, 9, 22, -19, 46, 69, 2, -21, 0, -13, -18, -21, 73, -30, -7, 91, -49, -2, 46, 31, 20, -74, -92, 88, -93, -74, -95, 64, 50, -49, -108, 103, 29, 19, 35, -56, 85, -83, -51, -65, -65, 95, 48, 29, 6, -76, 32, 23, 16, 73, 60, -56, 24, -25, 2, -33, 27, 92, 16, -28, 4, -11, -65, 23, -75, -6, -54, 11, -102, -43, -25, 6, -110, 15, 63, -31, 81, 59, -16, 13, -84, 9, -4, -8, 80, -79, -62, 8, 2, 40, 91, 69, -2, 93, -49, 38, 62, -72, 38, -82, -14, 36, -33, 14, 89, 65, -61, 96, -75, -53, 48, -20, -37, 15, 32, -79, -45, 83, -68, 75, -35, -50, -30, -71, -22, 11, 71, 25, 83, -94, 71, 64, -26, 68, -9, -42, -83, 50, 39, -59, -55, -77, -1, 90, 56, -60, 40, 63, -44, -10, 55, -66, -7, 1, 35, 23, 74, 81, 89, 7, 109, -49, 63, 49, 78, 54, 48, 91, 16, -37, -70, -44, 13, 8, -40, 103, -26, 84, 0, -94, 108, -77, 44, 79, -38, 26, 115, 105, 79, -88, -83, 52, -65, 96, -59, -28, -76, -88, -51, 19, -101, -72, 86, -4, 28, 98, -108, -27, -54, -39, 18, 7, 66, -18, -66, -70, 113, 0, -61, -61, -57, -89, -42, -83, -73, -5, -83, -59, -42, -73, 46, -67, -89, -51, -88, -81, -93, -57, 28, 17, 31, 9, -11, 32, -65, -96, 13, -83, 94, -70, 62, 82, 86, 69, 8, -24, -97, 85, 26, -9, 1, 30, -41, 24, -3, 34, -75, -53, 11, 69, -5, -68, -9, 69, -75, -39, 110, -51, -14, 24, 0, 11, -94, 76, 27, -65, 57, -57, 57, -72, 69, 18, -12, 80, -57, 53, -3, 92, 84, 49, -69, -36, -82, 35, -86, -27, -66, -53, 60, -61, -112, -73, 31, 17, -68, 20, 28, 42, -54, -22, 63, 77, 5, 7, -37, 23, -65, -31, 83, 35, -70, -108, -51, 66, 13, -26, -17, 42, -7, 21, 34, -79, 34, 89, 15, -86, -94, -43, -78, 1, -94, -49, -3, 86, 41, 39, -99, -12, -53, 13, 
  -83, -51, 59, 92, 74, -7, 33, -101, -15, 20, 15, 54, -95, -15, 68, 27, -42, -65, -52, -104, 74, 62, 75, -18, -8, -47, 15, 59, 40, 52, -16, 37, -118, -70, 18, -60, 10, 40, -65, -60, -53, 42, -23, 5, -16, -11, -40, -82, 57, 46, 20, -42, 59, -75, 78, -36, 4, -64, -30, 59, -33, 10, -54, 83, -52, -2, 7, 16, 79, 19, 37, 33, -100, -42, 34, -59, -32, 99, 66, -36, -13, -36, -94, 4, 4, 0, 21, 98, 37, 113, -27, 17, 55, 85, 50, 113, 13, -113, -13, -104, -94, 112, 28, -66, -21, -29, 68, -1, 88, -115, -6, -65, -1, 44, 52, -96, 71, -4, -96, -46, -101, -29, -46, 37, -118, 116, 32, -110, 18, -27, -62, -78, -98, -99, -65, 4, -3, 62, 80, 39, -60, 6, -48, 92, 50, -90, -85, 4, -116, -53, -6, -85, 38, -68, -3, 95, -43, -106, 52, 69, -107, -78, -59, -31, -32, 36, 87, -79, -105, 87, -76, -99, -71, 4, -83, 100, -64, 4, 35, 22, 9, -40, -4, 32, -60, -47, -63, 98, -65, 8, -46, 50, -46, -11, 12, -27, 40, -58, 40, 107, -86, 68, -81, 14, 50, 12, -81, 95, -47, -77, 16, -87, 68, 10, 25, 18, -91, 69, 78, 43, -5, 49, 59, 55, 114, 84, 2, 74, 23, -42, 41, 5, 37, 20, -37, -51, -48, -35, 72, 64, -56, 12, 94, -92, -81, 37, -38, -86, 32, 6, -2, 4, 95, -10, 90, -31, -15, -37, -21, 23, 47, -23, 88, 94, -17, -34, -39, -54, -8, 14, 58, -60, -40, 56, -88, 87, 95, -55, 79, -74, 73, -98, 71, 94, 0, 109, 85, -89, -43, 6, 85, 101, 37, -61, -100, -69, -42, 94, -86, -76, -94, -40, -95, 54, 26, -23, 41, 76, -24, 103, 37, 56, -79, -9, 68, -31, -32, -19, 69, -28, -18, 35, 42, -50, -58, -95, -59, -78, 63, -95, -89, 67, -13, 89, 6, 83, 9, -71, 51, -1, -58, 89, 39, -28, -47, -80, -82, 73, -67, -54, 52, -39, 47, -13, -68, -101, 83, -65, 18, -63, 35, -39, 59, 86, -54, 66, -57, -101, 53, -13, -17, 13, -3, 86, 74, -64, 112, 52, 19, -11, 16, 11, -82, -79, -4, -106, -110, -1, 43, 39, 68, -24, -9, 100, 111, 41, -90, 89, -16, 28, -50, 48, -45, 76, -58, -6, -72, -52, -16, -7, 52, -16, -61, -25, -72, 54, -76, 6, 18, 98, -81, -82, 75, 20, -20, -2, -18, -76, -104, 1, 53, 83, 34, 78, 30, -52, -11, 73, -105, 92, -34, 17, 74, 100, -62, 51, -18, 7, 18, -50, 38, 63, 24, 56, -97, 72, -10, 91, 82, -6, 43, -30, 16, -68, 88, -50, 25, 111, -85, 91, -1, -67, 79, 79, -2, 103, -19, 21, 77, -84, -23, -48, 32, -89, 90, 73, 48, 28, -55, -30, -105, -88, 39, 38, -3, -105, 24, -83, 78, -88, -26, -31, -31, 4, -10, 22, 78, -60, -72, -69, -21, 88, -19, -19, 85, 101, 10, -54, 92, -75, -42, 3, -14, 99, -40, 15, -88, 71, 100, 7, 31, -63, 51, 91, 29, -87, 65, -17, -99, 37, -29, 48, -59, 67, -100, 30, 37, -37, -68, -53, -88, 72, 61, 80, -97, 27, -65, -13, 74, 96, -28, 6, -97, -48, 39, -47, -46, 2, -89, -41, -24, -66, 76, 49, -83, 108, -21, 16, -92, -8, -21, 4, -58, 45, -33, 24, -71, -60, -16, 98, -38, -103, -43, -83, -98, -76, -48, -78, 69, 10, 
  49, 91, 98, -59, 53, -55, -82, 50, -36, 60, -38, -26, 6, 89, 39, -5, 60, 34, 90, 25, -34, -24, -79, -84, 45, -42, 59, -13, -57, 89, 76, 16, 75, 37, 81, -112, 75, -93, 73, 65, -38, -26, -62, -63, 33, -64, -74, -22, 69, 23, -92, 39, 35, -6, -107, -112, -12, -41, 100, 64, -47, 5, 85, -16, 1, -36, 1, -44, 101, 101, -25, 84, -4, 3, -87, -43, 49, -11, 18, -67, -45, -83, -22, 33, -46, 63, 24, -50, 105, 63, -24, -23, -41, -72, 42, -13, -99, 93, 33, 65, 30, 30, -40, 61, -1, -4, -11, -16, 37, -58, -9, 105, 108, -98, 6, -77, -69, 76, 107, -40, 87, -37, -40, -74, -61, -73, -20, -41, -81, -87, 62, -6, -100, 53, 29, -71, -75, 27, 38, -47, -88, 91, -64, -80, 67, -80, -57, 71, -76, -39, -73, -92, 90, 38, -5, 90, -1, -68, 68, -79, 23, -18, -24, 32, -88, 45, 10, 54, -81, -15, -3, -52, -66, 46, 88, 81, -15, 97, 11, -13, 91, -61, 66, 96, 13, -47, 36, -6, -37, -13, 115, 99, 8, -79, 41, -14, 42, 16, 9, -66, -25, 82, -57, 0, 56, 2, -77, 85, -74, -90, -62, 105, -12, -59, 63, 31, 83, -76, 8, 45, 42, 104, -100, -41, -52, -39, -43, -87, -73, -66, -5, -88, -34, -17, -64, -17, 67, -98, 103, -43, 26, 55, 87, -11, -16, 52, -72, -89, 59, -84, -61, 27, -8, -41, 30, -96, 69, 110, -91, 33, -91, -105, -35, 23, 21, -51, -26, 74, 66, -84, 102, -94, -38, -99, -74, -21, -74, -48, 24, -82, -1, 33, 9, 77, 23, 22, 63, 63, 22, -68, -112, -107, -81, 39, -24, -58, -84, 85, 9, 56, 49, 25, -32, 33, -112, -56, 86, 107, 75, 24, 82, 110, 90, -6, 12, -52, -66, 87, -78, 27, 1, 75, -3, 99, 48, 22, 34, -99, -56, 32, -34, 104, 68, -72, 28, 23, 12, 105, -38, -16, -24, 86, -15, 54, 65, -30, 9, -61, 35, -51, 18, 48, -68, 18, 25, -62, 50, -22, -71, -20, -83, -56, 13, -66, -67, 42, 60, 58, 32, -52, -72, 0, -61, 51, 90, 31, -68, 41, 3, 105, 75, 70, 33, -14, -21, -45, -98, -49, -27, 73, 5, 71, 81, 50, -93, 95, 89, -24, 91, -62, -102, 25, 86, -76, -6, 6, -18, -7, 43, 48, 73, 61, 105, 85, 90, -91, 92, -78, 22, -15, -85, -38, -58, 71, 24, 95, -26, 40, -92, 71, 41, 23, -65, -81, 89, -9, -90, -39, -85, -21, -86, -15, -1, 65, 46, 51, -5, -5, -53, -29, -64, -5, 11, 84, 90, -77, 73, 92, -79, 42, -38, 31, 43, -81, -76, 5, -60, -23, -50, -37, 111, 65, 83, -88, -91, 91, 20, -25, -5, -10, -60, -45, 83, -93, 74, 4, -12, 70, 56, 65, 17, 41, -64, 48, 85, -60, 39, -46, 52, -4, 103, -25, -10, -39, -34, -29, 67, -88, 66, -82, 68, -63, -89, -45, -1, 55, 6, -25, -11, -52, 97, 96, -47, -47, 29, -77, 28, -105, -24, -75, 91, -13, -64, 48, -2, -31, 16, 0, 79, -45, 17, -27, 19, 61, -28, -43, -25, -44, -3, 29, 113, -94, 0, 40, 83, 8, 57, 27, -52, -4, -32, 18, -16, -22, -59, -42, 1, -59, 68, 36, -5, -1, 21, -75, 3, -20, 39, -66, 7, 96, -63, -43, 19, 25, -20, -65, -54, 88, -100, -32, 23, -48, 73, -103, 4, -72, -41, 28, -87, 30, 
  60, -42, 106, 94, -14, -33, -25, -53, 96, -2, 14, -55, 28, -89, 11, -50, 56, -94, -23, 21, -1, 74, -39, 13, 44, 90, 84, 1, -59, 29, -18, 61, -3, 33, 60, -108, -22, 81, 49, 104, 51, -7, 41, -81, 89, -92, 28, -55, 30, 86, 108, -92, 72, -58, -116, 12, 46, 33, -75, -7, 81, -51, 32, 27, 81, -86, 64, -50, -30, 26, -26, 62, -21, -9, -89, -64, 87, -97, -92, 9, -86, 9, -63, -17, 37, -97, 30, 26, 29, 26, -54, -47, -76, -15, -2, -93, -44, 33, -101, 5, 76, -44, 16, -39, 7, 39, -86, 85, 75, 35, 70, -24, 77, 22, -44, 54, 74, -71, -44, 3, 54, 42, 26, 25, 77, 53, 82, -50, 14, -50, -82, 39, 37, 18, -7, -36, 67, 32, -93, -14, -75, -92, -73, -104, -18, -102, -34, 53, -9, 92, 33, 35, -53, 63, -35, 5, -50, 82, -28, 54, -104, -14, 10, 13, 11, -26, -79, 56, -75, 16, 94, 63, -63, -75, -24, 68, -43, 47, -96, 22, 58, -7, -35, 22, -20, -50, 27, 41, 76, -94, 56, 102, -1, -46, 23, -91, 64, -34, 14, -90, 89, -38, -22, -53, 82, -8, -70, -59, 72, -68, 32, -95, -69, 44, 32, -86, 8, -70, 19, -51, 71, 96, 45, 46, 33, 12, -66, 84, -77, 13, -36, 55, -9, 97, -83, 50, -68, 102, 21, -98, -90, 79, -20, 71, 54, 23, -106, 88, 5, 91, -33, -83, -35, -82, -63, -26, -55, -100, 4, 81, 82, -4, -83, -20, -78, -75, -82, -28, -82, -78, -95, 28, 19, -28, -89, -10, -5, 103, 12, -48, 76, -59, 47, 7, -32, 19, 39, -7, 65, -8, -75, -78, -100, 34, 75, -12, -56, 1, 52, -51, -43, -25, -50, -90, 37, 44, 26, 5, 94, -49, -9, -23, -77, 55, 44, 48, 33, -21, -97, -29, -21, 53, 20, 81, -68, -52, -14, -62, 32, 8, -106, -34, 59, -58, 47, 60, 78, -104, 51, -39, 99, -22, -34, 19, 60, 77, -48, 64, -95, -5, 0, -45, -24, -98, 47, 81, -7, -8, -41, 68, 3, 24, 1, -78, 75, -51, -80, -85, 42, -11, 81, 49, 52, -69, -80, 64, -44, -69, 24, -30, 2, -65, -82, -63, 20, 30, -7, 48, -28, 73, 67, -37, 65, -35, 12, 18, -76, -36, 76, 44, -94, 15, -80, -51, 53, -15, -33, -71, -47, 33, -62, 36, -1, 66, -64, -1, 93, 39, -16, 1, -25, 42, -5, -94, -78, 20, 64, 48, 24, -83, -89, 71, -105, -52, 49, 48, -14, 12, -35, 44, -83, 36, 68, -2, -66, -100, 58, 89, 16, 51, -2, -17, -50, 48, 21, -84, 18, -70, -91, 0, -34, -21, -16, 98, 1, -65, -75, 65, 82, -85, -100, -66, 7, 21, -87, 41, 25, 30, 21, 12, -17, 23, 10, -85, 100, -14, -28, 55, 50, -49, -47, -49, -48, 94, -22, 12, 8, -54, 79, -5, -54, 33, -76, 83, 58, -93, 83, 75, 60, 85, -64, 0, -83, -66, -88, 100, -60, 44, 7, -70, -76, 38, 71, 4, 29, -13, 79, -80, -21, 3, -85, 92, 59, 0, 24, -58, 100, 79, -30, 33, 42, 89, -64, -34, 13, -37, -89, 7, -64, -44, -6, -85, -44, 104, -10, -58, 101, 75, -33, 34, -1, -66, 18, -75, 89, 62, 86, 10, -56, -85, 74, 29, 75, 77, 43, -48, -1, -25, 92, 30, 88, 76, -30, 96, -59, 88, -21, 23, 16, 45, 102, -76, -76, -67, 34, 116, 16, -66, 9, 82, 
  24, -28, 71, -54, -56, -25, 81, -47, 47, -73, -11, 22, 95, -24, 94, -8, 62, 103, 36, 24, -55, 43, 95, -7, 62, -5, -60, 88, 3, -92, 14, 30, -44, 53, 3, -76, 1, -24, -94, 51, -53, 62, 33, -101, -43, -33, 52, 22, -93, -100, -14, 82, -107, -26, -71, -106, -28, -42, 32, -92, -90, -8, -55, -20, 1, 49, 44, 46, 76, 34, -61, 84, 58, 1, -19, 28, -86, 25, 65, 22, 8, -6, -77, 27, -22, -56, -59, -47, 81, -59, -105, 34, 87, 90, -76, 34, 99, 18, 0, 62, -57, -83, 75, -56, 48, 3, -86, -4, 96, 80, 64, -14, -47, -23, -32, 3, -70, 68, 25, -65, -63, 90, 90, -31, 10, 62, -3, 19, -6, 16, 24, 62, -26, -14, -20, -86, -85, -9, 7, 67, -88, -66, -74, 11, -103, -36, 33, 28, 105, 98, 74, 102, -66, -85, -50, 37, -85, 90, -47, -55, 5, 35, 1, -33, -93, -80, -89, -29, -12, -58, 42, -101, -24, -65, 93, -94, -3, -90, -82, 6, -52, -21, 77, -13, 31, -48, -102, 85, -102, 43, 69, 10, 23, 73, -53, 50, -22, -46, -12, -36, -89, 43, 11, -82, -98, -89, -79, 82, -93, -83, -28, 10, 33, 42, -88, 104, 60, 107, 95, -80, 46, -73, -104, -41, -104, -32, -78, -11, -70, -77, 61, -4, -77, -28, 78, 64, 49, 47, -80, -32, 49, -55, 1, 48, -50, -78, -31, 19, 61, -81, 46, -71, 23, -38, -14, -30, 50, -17, 15, -46, -82, 47, 65, -11, -68, -74, 2, -91, -89, -43, -24, -100, 52, 11, 89, 85, -1, -12, -35, 70, -14, -81, 55, 45, -11, 6, -55, 63, 20, 5, -63, 42, 68, -42, -73, -73, -69, 39, -99, 82, -6, -105, 90, 30, -28, -61, -19, 23, 12, 51, 1, 83, 74, 9, 58, 43, -10, 36, 0, -106, 20, 11, 70, -60, 82, 44, 2, 11, -72, 49, -61, -20, 81, 38, -58, 83, 45, 54, -8, -7, -78, 5, -34, -70, 90, -74, -7, -46, -94, -33, -17, 76, 95, 47, 37, 95, -7, -9, 27, 88, -93, 98, -36, 1, -81, -18, 67, -56, 22, -64, -12, -86, 16, 93, -57, 6, 48, -55, 9, 70, 42, -32, -77, -44, 36, -96, 95, 96, -85, -11, -93, -80, -65, -66, -17, -73, -9, -98, 0, -12, 47, -55, -13, -61, 8, 56, -78, -71, 8, 95, 70, -31, -66, 93, -32, -77, -12, -34, 16, -44, 74, -11, 98, -44, 73, -60, 85, -49, 6, 74, -19, 44, -61, -40, 93, 94, 76, -20, 26, 50, -18, -6, 68, -46, -78, -53, 71, 97, -17, 51, -18, 77, 88, 37, -69, -36, 55, -25, 72, 69, 5, 17, 77, 105, 72, -72, 61, 32, -34, -28, 98, -34, -35, -5, 49, -94, 11, 23, -42, 60, -60, -28, 96, -13, 24, -10, -103, -90, 31, -50, 66, -19, -103, -86, -81, -48, -102, -19, 76, 92, -80, -99, 46, -32, -85, -83, -62, -12, -4, -70, -30, -23, -66, 1, -14, 46, -75, -85, -15, -49, 3, -73, 38, 36, 9, -59, 7, 34, 69, -48, 13, -47, -83, -69, 77, -48, -69, 64, 57, -96, -42, 13, 15, 38, 45, 52, -72, -71, -40, -11, -34, 20, 80, -14, -31, -71, -45, -22, 97, -97, -73, 32, -49, 38, -22, -66, 43, -63, 62, 4, -66, -76, -62, 59, -58, -39, 48, 19, 92, -85, -47, -91, 20, -84, 77, 64, -102, -12, -72, 38, 23, 60, -5, -76, 82, 73, -90, 37, -30, 0, 
  -115, -40, -16, -27, -47, 26, -8, 2, 89, 9, -81, -18, -3, 45, 32, 65, 10, -111, -10, -16, -76, 62, -52, -99, -39, -56, -56, 84, 31, -7, -44, -91, 87, 11, 43, -9, -4, 17, 47, 24, -41, -101, 38, 28, 63, 7, -41, -2, 8, 20, 52, -79, 48, -65, -49, 39, -69, -94, 32, -95, -2, -40, -63, -45, -21, -86, 33, 37, 94, 103, 117, 39, -6, -9, -90, -96, 22, -31, 59, 41, 88, -58, 14, -66, 21, -41, 34, 28, 13, 18, 99, 62, 12, -79, 17, -60, -70, -54, 40, 74, -12, 56, 90, -65, 94, 21, -77, 75, -75, -76, 60, -42, 41, -89, -24, 92, 69, -37, 91, 74, 98, -11, 53, 13, 11, -27, 14, -63, -72, 78, 113, 21, -84, -99, -2, -33, -88, -35, 72, 6, -74, 31, -18, 71, -9, 73, 45, 25, 90, -12, 94, 54, 79, -6, -59, 67, 17, -48, -76, 18, -28, -57, 19, 88, 59, 13, 88, -17, -63, -101, 78, 73, -2, 78, -37, 2, -82, -2, -96, -19, 78, -74, 25, 35, -59, 93, 26, 34, -49, -79, -74, 85, 42, 25, -35, -72, 68, -54, 51, -29, 65, -48, 60, 2, 45, 77, 1, -101, -85, 62, 25, 67, -16, -22, -71, -41, 22, 35, 52, -47, 55, -49, -44, -79, 26, 66, 66, -86, -89, 17, -96, 77, 27, -41, -59, 3, -97, -94, -15, -49, -80, -102, -86, -104, -40, -52, -59, -83, 38, -9, 65, 103, 34, -29, 11, -73, 85, 41, -14, -91, -81, -16, -93, 30, -48, 44, -7, -74, 9, 35, 68, -92, -63, 85, -52, 103, 99, -29, 21, 96, -74, 32, 104, 54, -9, 84, 28, 4, -57, 44, -101, 16, 13, 73, -43, 25, -80, 89, -79, -72, 41, 48, -50, -44, -90, 120, 67, -28, -14, 61, -40, -42, 53, -49, 58, -59, -84, 77, -27, 12, 11, -89, -69, 77, -79, 56, -100, -35, -43, 112, -41, 39, -52, -16, -31, 1, 14, -7, -49, -14, 79, 58, 40, 96, 22, -65, -25, 106, -88, 106, -96, -74, 0, 63, 62, 6, 64, 44, 90, -9, 46, -42, 6, 51, -89, 58, -49, 42, 72, 44, -26, 56, 93, -2, -62, 17, -39, -95, 7, 92, -49, 54, -41, -24, 72, -34, -24, 64, 28, -60, 83, 47, 103, 9, 79, -16, -99, -91, 44, -7, 97, 69, -13, 19, 39, 54, -24, -86, 24, -57, 90, -44, -30, 91, 62, 42, -28, -76, 108, 73, -65, 29, -8, 91, -48, -43, -40, -10, -63, -36, 102, 7, -81, 60, -29, -55, -78, -85, 73, -15, 8, -34, -59, 6, 85, -111, 59, 40, 42, 23, -57, 80, -41, 45, -63, -33, 49, 40, 9, -60, -90, 84, 56, -27, -39, -33, -94, 77, -53, -79, 69, 15, 46, -58, 65, -36, 78, 20, -38, -89, -12, 8, 82, 49, -53, 58, 10, -84, -45, -59, -31, 105, -77, -13, 74, 7, 35, 16, 69, 79, -42, -77, -71, -67, -81, 90, 37, 70, -15, -46, -12, -26, -102, 69, -96, -57, 61, -19, -61, -23, 41, 65, -78, -25, -72, 7, 68, 65, 66, -32, -74, 5, 44, -26, -23, -41, -43, -94, 63, 47, 44, -12, -24, -56, 83, -14, -83, 91, 96, -50, 80, -46, -69, 13, -66, -26, -45, -100, 60, 70, 73, -18, -16, 50, 66, -2, -71, 11, 62, 40, 46, 78, -81, 24, -67, -98, -51, -67, -26, -103, -70, -72, -4, 67, 50, -17, 36, 25, 76, -2, 54, -102, 30, -53, -55, -56, -61, -47, 109, 66, 
